{"learner":{"attributes":{"scikit_learn":"{\"_estimator_type\": \"classifier\"}"},"feature_names":["home_rolling_win_rate","away_rolling_win_rate","home_rolling_score_for","away_rolling_score_for","home_rolling_score_against","away_rolling_score_against","home_rolling_margin","away_rolling_margin","h2h_home_win_rate","h2h_total_games","home_venue_win_rate","away_venue_win_rate","home_streak","away_streak","streak_diff","home_days_rest","away_days_rest","rest_diff","venue_encoded","home_ladder_position","away_ladder_position","ladder_position_diff","away_interstate","home_interstate","home_elo","away_elo","elo_diff","elo_home_win_prob"],"feature_types":["float","float","float","float","float","float","float","float","float","float","float","float","float","float","float","float","float","float","float","float","float","float","float","float","float","float","float","float"],"gradient_booster":{"model":{"cats":{"enc":[],"feature_segments":[],"sorted_idx":[]},"gbtree_model_param":{"num_parallel_tree":"1","num_trees":"200"},"iteration_indptr":[0,1,2,3,4,5,6,7,8,9,10,11,12,13,14,15,16,17,18,19,20,21,22,23,24,25,26,27,28,29,30,31,32,33,34,35,36,37,38,39,40,41,42,43,44,45,46,47,48,49,50,51,52,53,54,55,56,57,58,59,60,61,62,63,64,65,66,67,68,69,70,71,72,73,74,75,76,77,78,79,80,81,82,83,84,85,86,87,88,89,90,91,92,93,94,95,96,97,98,99,100,101,102,103,104,105,106,107,108,109,110,111,112,113,114,115,116,117,118,119,120,121,122,123,124,125,126,127,128,129,130,131,132,133,134,135,136,137,138,139,140,141,142,143,144,145,146,147,148,149,150,151,152,153,154,155,156,157,158,159,160,161,162,163,164,165,166,167,168,169,170,171,172,173,174,175,176,177,178,179,180,181,182,183,184,185,186,187,188,189,190,191,192,193,194,195,196,197,198,199,200],"tree_info":[0,0,0,0,0,0,0,0,0,0,0,0,0,0,0,0,0,0,0,0,0,0,0,0,0,0,0,0,0,0,0,0,0,0,0,0,0,0,0,0,0,0,0,0,0,0,0,0,0,0,0,0,0,0,0,0,0,0,0,0,0,0,0,0,0,0,0,0,0,0,0,0,0,0,0,0,0,0,0,0,0,0,0,0,0,0,0,0,0,0,0,0,0,0,0,0,0,0,0,0,0,0,0,0,0,0,0,0,0,0,0,0,0,0,0,0,0,0,0,0,0,0,0,0,0,0,0,0,0,0,0,0,0,0,0,0,0,0,0,0,0,0,0,0,0,0,0,0,0,0,0,0,0,0,0,0,0,0,0,0,0,0,0,0,0,0,0,0,0,0,0,0,0,0,0,0,0,0,0,0,0,0,0,0,0,0,0,0,0,0,0,0,0,0,0,0,0,0,0,0],"trees":[{"base_weights":[-1.3841658E-2,-7.5414246E-1,5.9753597E-1,7.4286336E-1,-8.748619E-1,3.099548E-1,1.0793314E0,-9.365234E-3,7.4622415E-2,-4.7541466E-2,6.984684E-2,2.207705E-2,-2.2160819E-2,6.0017437E-2,3.509954E-3],"categories":[],"categories_nodes":[],"categories_segments":[],"categories_sizes":[],"default_left":[0,0,0,0,0,0,0,0,0,0,0,0,0,0,0],"id":0,"left_children":[1,3,5,7,9,11,13,-1,-1,-1,-1,-1,-1,-1,-1],"loss_changes":[2.3263202E2,4.3009827E1,3.8353058E1,1.3170738E1,3.9212875E1,1.7981083E1,1.2503525E1,0E0,0E0,0E0,0E0,0E0,0E0,0E0,0E0],"parents":[2147483647,0,0,1,1,2,2,3,3,4,4,5,5,6,6],"right_children":[2,4,6,8,10,12,14,-1,-1,-1,-1,-1,-1,-1,-1],"split_conditions":[-2E1,6.72E1,8.83E1,6.97E1,1.056E2,8.43E1,8.58E1,-9.365234E-3,7.4622415E-2,-4.7541466E-2,6.984684E-2,2.207705E-2,-2.2160819E-2,6.0017437E-2,3.509954E-3],"split_indices":[26,4,5,3,3,4,3,0,0,0,0,0,0,0,0],"split_type":[0,0,0,0,0,0,0,0,0,0,0,0,0,0,0],"sum_hessian":[5.1095847E2,2.3102716E2,2.799313E2,1.6601244E1,2.1442592E2,1.7697089E2,1.0296043E2,7.850834E0,8.750409E0,2.0837424E2,6.0516853E0,1.5129213E2,2.5678772E1,9.159307E1,1.1367354E1],"tree_param":{"num_deleted":"0","num_feature":"28","num_nodes":"15","size_leaf_vector":"1"}},{"base_weights":[6.65398E-2,-7.349528E-1,6.269889E-1,-1.0502293E0,-1.9710588E-1,4.8158675E-1,1.402498E0,-7.197898E-2,-2.8124878E-2,-2.09372E-2,3.2464135E-2,5.934418E-2,1.4097742E-2,7.474293E-2,2.3831842E-2],"categories":[],"categories_nodes":[],"categories_segments":[],"categories_sizes":[],"default_left":[0,0,0,0,0,0,0,0,0,0,0,0,0,0,0],"id":1,"left_children":[1,3,5,7,9,11,13,-1,-1,-1,-1,-1,-1,-1,-1],"loss_changes":[2.3516759E2,3.6095383E1,3.353836E1,2.4288498E1,1.5688009E1,3.6217422E1,2.8173676E0,0E0,0E0,0E0,0E0,0E0,0E0,0E0,0E0],"parents":[2147483647,0,0,1,1,2,2,3,3,4,4,5,5,6,6],"right_children":[2,4,6,8,10,12,14,-1,-1,-1,-1,-1,-1,-1,-1],"split_conditions":[4.51E-1,3.74E-1,5.974026E-1,7.4E1,5.855856E-1,1.3958E3,1.4E1,-7.197898E-2,-2.8124878E-2,-2.09372E-2,3.2464135E-2,5.934418E-2,1.4097742E-2,7.474293E-2,2.3831842E-2],"split_indices":[27,27,11,2,11,25,15,0,0,0,0,0,0,0,0],"split_type":[0,0,0,0,0,0,0,0,0,0,0,0,0,0,0],"sum_hessian":[5.205155E2,2.1393036E2,3.065851E2,1.338531E2,8.0077255E1,2.6033475E2,4.625038E1,7.269176E1,6.1161346E1,6.415377E1,1.5923484E1,5.568421E1,2.0465053E2,4.1118687E1,5.1316953E0],"tree_param":{"num_deleted":"0","num_feature":"28","num_nodes":"15","size_leaf_vector":"1"}},{"base_weights":[1.13784835E-1,-8.524117E-1,5.36395E-1,-1.0444613E0,3.8385086E-2,2.1673974E-1,9.259494E-1,-7.076212E-2,-2.9475769E-2,-5.6052484E-2,3.7190944E-2,1.2063482E-3,5.154202E-2,-1.1191904E-2,5.211429E-2],"categories":[],"categories_nodes":[],"categories_segments":[],"categories_sizes":[],"default_left":[0,0,0,0,0,0,0,0,0,0,0,0,0,0,0],"id":2,"left_children":[1,3,5,7,9,11,13,-1,-1,-1,-1,-1,-1,-1,-1],"loss_changes":[2.1674103E2,2.7796982E1,4.5553795E1,2.0989548E1,2.5754335E1,3.1982405E1,2.2608093E1,0E0,0E0,0E0,0E0,0E0,0E0,0E0,0E0],"parents":[2147483647,0,0,1,1,2,2,3,3,4,4,5,5,6,6],"right_children":[2,4,6,8,10,12,14,-1,-1,-1,-1,-1,-1,-1,-1],"split_conditions":[4.01E-1,8.18E1,8.31E1,-5E0,5.131579E-1,5.9090906E-1,-3E0,-7.076212E-2,-2.9475769E-2,-5.6052484E-2,3.7190944E-2,1.2063482E-3,5.154202E-2,-1.1191904E-2,5.211429E-2],"split_indices":[27,2,5,21,10,11,21,0,0,0,0,0,0,0,0],"split_type":[0,0,0,0,0,0,0,0,0,0,0,0,0,0,0],"sum_hessian":[5.277037E2,1.6004259E2,3.6766104E2,1.3153754E2,2.850506E1,2.0337206E2,1.64289E2,7.060688E1,6.0930653E1,1.0394839E1,1.811022E1,1.6580951E2,3.7562542E1,1.488918E1,1.4939983E2],"tree_param":{"num_deleted":"0","num_feature":"28","num_nodes":"15","size_leaf_vector":"1"}},{"base_weights":[-5.325941E-3,-6.902279E-1,4.7349313E-1,-8.463872E-1,3.68023E-1,8.2647943E-1,1.5128396E-2,-5.4539245E-2,-2.4298694E-2,3.80422E-2,-4.7612675E-2,-1.2955847E-2,4.6505284E-2,7.548157E-3,-5.892838E-2],"categories":[],"categories_nodes":[],"categories_segments":[],"categories_sizes":[],"default_left":[0,0,0,0,0,0,0,0,0,0,0,0,0,0,0],"id":3,"left_children":[1,3,5,7,9,11,13,-1,-1,-1,-1,-1,-1,-1,-1],"loss_changes":[1.7609833E2,3.7035896E1,5.101181E1,1.6057571E1,1.6305372E1,2.048944E1,2.2717777E1,0E0,0E0,0E0,0E0,0E0,0E0,0E0,0E0],"parents":[2147483647,0,0,1,1,2,2,3,3,4,4,5,5,6,6],"right_children":[2,4,6,8,10,12,14,-1,-1,-1,-1,-1,-1,-1,-1],"split_conditions":[4.51E-1,8.67E1,-1.1E0,3.56E-1,2.37E1,-2E0,1.9E1,-5.4539245E-2,-2.4298694E-2,3.80422E-2,-4.7612675E-2,-1.2955847E-2,4.6505284E-2,7.548157E-3,-5.892838E-2],"split_indices":[27,2,7,27,7,21,9,0,0,0,0,0,0,0,0],"split_type":[0,0,0,0,0,0,0,0,0,0,0,0,0,0,0],"sum_hessian":[5.3391565E2,2.1949579E2,3.1441986E2,1.9161517E2,2.788062E1,1.7682457E2,1.3759528E2,1.12208786E2,7.940639E1,2.2035685E1,5.844935E0,1.5127885E1,1.6169669E2,1.2478916E2,1.2806111E1],"tree_param":{"num_deleted":"0","num_feature":"28","num_nodes":"15","size_leaf_vector":"1"}},{"base_weights":[-4.849374E-2,-7.060441E-1,4.9438247E-1,-7.812041E-1,4.9504295E-2,8.4905213E-1,2.2705324E-2,-5.0669253E-2,-1.2064852E-2,3.50168E-2,7.005005E-2,6.9293514E-2,-3.81587E-3],"categories":[],"categories_nodes":[],"categories_segments":[],"categories_sizes":[],"default_left":[0,0,0,0,0,0,0,0,0,0,0,0,0],"id":4,"left_children":[1,3,5,7,-1,9,11,-1,-1,-1,-1,-1,-1],"loss_changes":[1.8169202E2,3.0484566E1,4.6518776E1,2.7251587E1,0E0,1.1365929E1,1.666451E1,0E0,0E0,0E0,0E0,0E0,0E0],"parents":[2147483647,0,0,1,1,2,2,3,3,5,5,6,6],"right_children":[2,4,6,8,-1,10,12,-1,-1,-1,-1,-1,-1],"split_conditions":[-2E1,1.25E2,1.4839E3,5.6E-1,4.9504295E-2,2.101E2,-1.29E1,-5.0669253E-2,-1.2064852E-2,3.50168E-2,7.005005E-2,6.9293514E-2,-3.81587E-3],"split_indices":[26,15,25,11,0,26,26,0,0,0,0,0,0],"split_type":[0,0,0,0,0,0,0,0,0,0,0,0,0],"sum_hessian":[5.0596017E2,2.2869287E2,2.7726733E2,2.1982014E2,8.872727E0,1.5745761E2,1.1980971E2,1.5266682E2,6.7153305E1,1.2686089E2,3.059672E1,6.8620553E0,1.12947655E2],"tree_param":{"num_deleted":"0","num_feature":"28","num_nodes":"13","size_leaf_vector":"1"}},{"base_weights":[2.4694102E-2,-6.903929E-1,4.128561E-1,-9.4823927E-1,-1.0752402E-1,2.5580576E-1,1.3867813E0,-5.125652E-2,3.424834E-2,-3.0198505E-2,3.9922677E-2,7.301509E-3,4.5426536E-2,7.499591E-2,3.2749712E-2],"categories":[],"categories_nodes":[],"categories_segments":[],"categories_sizes":[],"default_left":[0,0,0,0,0,0,0,0,0,0,0,0,0,0,0],"id":5,"left_children":[1,3,5,7,9,11,13,-1,-1,-1,-1,-1,-1,-1,-1],"loss_changes":[1.4561026E2,2.7475105E1,5.132623E1,1.7114464E1,2.6973537E1,2.0819971E1,2.1856766E0,0E0,0E0,0E0,0E0,0E0,0E0,0E0,0E0],"parents":[2147483647,0,0,1,1,2,2,3,3,4,4,5,5,6,6],"right_children":[2,4,6,8,10,12,14,-1,-1,-1,-1,-1,-1,-1,-1],"split_conditions":[4.16E-1,0E0,9.73E1,9.44E1,8.84E1,6.1538464E-1,6.8421054E-1,-5.125652E-2,3.424834E-2,-3.0198505E-2,3.9922677E-2,7.301509E-3,4.5426536E-2,7.499591E-2,3.2749712E-2],"split_indices":[27,12,5,5,4,11,8,0,0,0,0,0,0,0,0],"split_type":[0,0,0,0,0,0,0,0,0,0,0,0,0,0,0],"sum_hessian":[5.216498E2,1.8303326E2,3.386165E2,1.2612634E2,5.690692E1,2.933147E2,4.5301804E1,1.21047165E2,5.079171E0,3.7156677E1,1.9750242E1,2.5278926E2,4.0525425E1,3.7753788E1,7.5480175E0],"tree_param":{"num_deleted":"0","num_feature":"28","num_nodes":"15","size_leaf_vector":"1"}},{"base_weights":[-1.7096853E-2,-7.755374E-1,3.6817634E-1,-1.2609993E0,-4.8355767E-1,6.962623E-1,4.6108134E-2,-1.09573025E-2,-7.8904614E-2,-3.499286E-2,2.2244547E-2,6.246651E-2,2.5781605E-2,-1.0215677E-2,3.4321588E-2],"categories":[],"categories_nodes":[],"categories_segments":[],"categories_sizes":[],"default_left":[0,0,0,0,0,0,0,0,0,0,0,0,0,0,0],"id":6,"left_children":[1,3,5,7,9,11,13,-1,-1,-1,-1,-1,-1,-1,-1],"loss_changes":[1.4508054E2,2.2622162E1,3.465369E1,1.9705925E1,2.1984182E1,1.5118385E1,2.7171862E1,0E0,0E0,0E0,0E0,0E0,0E0,0E0,0E0],"parents":[2147483647,0,0,1,1,2,2,3,3,4,4,5,5,6,6],"right_children":[2,4,6,8,10,12,14,-1,-1,-1,-1,-1,-1,-1,-1],"split_conditions":[-5.89E1,-1.77E1,1.4747E3,4E-1,8.89E1,1.3383E3,5.514706E-1,-1.09573025E-2,-7.8904614E-2,-3.499286E-2,2.2244547E-2,6.246651E-2,2.5781605E-2,-1.0215677E-2,3.4321588E-2],"split_indices":[26,6,25,1,4,25,11,0,0,0,0,0,0,0,0],"split_type":[0,0,0,0,0,0,0,0,0,0,0,0,0,0,0],"sum_hessian":[4.9339432E2,1.6578117E2,3.2761313E2,6.0263317E1,1.0551786E2,1.6127327E2,1.6633987E2,1.4727165E1,4.553615E1,8.596721E1,1.9550655E1,3.738291E1,1.2389036E2,1.2019751E2,4.6142365E1],"tree_param":{"num_deleted":"0","num_feature":"28","num_nodes":"15","size_leaf_vector":"1"}},{"base_weights":[4.818712E-2,-6.5726703E-1,4.0290105E-1,4.0172063E-2,-7.338247E-1,5.6671947E-2,8.305417E-1,-4.0953577E-2,3.8703647E-2,-2.2682581E-2,1.6069401E-2,4.4991408E-2,-1.987305E-2],"categories":[],"categories_nodes":[],"categories_segments":[],"categories_sizes":[],"default_left":[0,0,0,0,0,0,0,0,0,0,0,0,0],"id":7,"left_children":[1,3,5,-1,7,9,11,-1,-1,-1,-1,-1,-1],"loss_changes":[1.2808046E2,2.0026016E1,5.0274017E1,0E0,2.1979286E1,2.586841E1,1.3532768E1,0E0,0E0,0E0,0E0,0E0,0E0],"parents":[2147483647,0,0,1,1,2,2,4,4,5,5,6,6],"right_children":[2,4,6,-1,8,10,12,-1,-1,-1,-1,-1,-1],"split_conditions":[-5.89E1,6E0,8.31E1,4.0172063E-2,8E0,9E0,1.5618E3,-4.0953577E-2,3.8703647E-2,-2.2682581E-2,1.6069401E-2,4.4991408E-2,-1.987305E-2],"split_indices":[26,19,5,0,17,18,25,0,0,0,0,0,0],"split_type":[0,0,0,0,0,0,0,0,0,0,0,0,0],"sum_hessian":[5.0885614E2,1.6973207E2,3.3912405E2,7.678537E0,1.6205353E2,1.8846802E2,1.5065605E2,1.540936E2,7.959933E0,6.3876873E1,1.2459114E2,1.4306624E2,7.589801E0],"tree_param":{"num_deleted":"0","num_feature":"28","num_nodes":"13","size_leaf_vector":"1"}},{"base_weights":[-1.1044767E-2,-6.6551447E-1,3.6565E-1,-8.607782E-1,1.740336E-1,7.400787E-1,3.7652895E-2,-4.673547E-2,2.9019287E-2,-2.0496761E-2,4.886512E-2,2.2514049E-2,4.967726E-2,-7.7202776E-3,3.731787E-2],"categories":[],"categories_nodes":[],"categories_segments":[],"categories_sizes":[],"default_left":[0,0,0,0,0,0,0,0,0,0,0,0,0,0,0],"id":8,"left_children":[1,3,5,7,9,11,13,-1,-1,-1,-1,-1,-1,-1,-1],"loss_changes":[1.25072136E2,3.068209E1,3.9406662E1,1.6910316E1,1.7605652E1,1.0207237E1,2.3817984E1,0E0,0E0,0E0,0E0,0E0,0E0,0E0,0E0],"parents":[2147483647,0,0,1,1,2,2,3,3,4,4,5,5,6,6],"right_children":[2,4,6,8,10,12,14,-1,-1,-1,-1,-1,-1,-1,-1],"split_conditions":[-5.89E1,8.3E1,1.4769E3,8.3E1,5.488722E-1,8.85E1,1E1,-4.673547E-2,2.9019287E-2,-2.0496761E-2,4.886512E-2,2.2514049E-2,4.967726E-2,-7.7202776E-3,3.731787E-2],"split_indices":[26,2,25,15,10,5,16,0,0,0,0,0,0,0,0],"split_type":[0,0,0,0,0,0,0,0,0,0,0,0,0,0,0],"sum_hessian":[5.0421713E2,1.8387242E2,3.203447E2,1.492425E2,3.4629932E1,1.4856232E2,1.7178238E2,1.4252742E2,6.7150817E0,2.0405403E1,1.4224528E1,7.144073E1,7.712159E1,1.3596739E2,3.5814983E1],"tree_param":{"num_deleted":"0","num_feature":"28","num_nodes":"15","size_leaf_vector":"1"}},{"base_weights":[1.4384756E-2,-7.560692E-1,2.8566843E-1,-8.367084E-1,1.4974785E-1,1.256311E0,1.9352873E-1,-9.128737E-3,-4.8627324E-2,-1.324854E-2,2.7848288E-2,2.677156E-2,6.867173E-2,1.3671003E-2,-3.7822645E-2],"categories":[],"categories_nodes":[],"categories_segments":[],"categories_sizes":[],"default_left":[0,0,0,0,0,0,0,0,0,0,0,0,0,0,0],"id":9,"left_children":[1,3,5,7,9,11,13,-1,-1,-1,-1,-1,-1,-1,-1],"loss_changes":[1.0418061E2,9.735786E0,3.247803E1,1.0235847E1,2.2398756E0,1.3749886E0,2.597043E1,0E0,0E0,0E0,0E0,0E0,0E0,0E0,0E0],"parents":[2147483647,0,0,1,1,2,2,3,3,4,4,5,5,6,6],"right_children":[2,4,6,8,10,12,14,-1,-1,-1,-1,-1,-1,-1,-1],"split_conditions":[3.74E-1,1.6548E3,1.3383E3,1.514E3,-1.864E2,7.78E1,1.9E1,-9.128737E-3,-4.8627324E-2,-1.324854E-2,2.7848288E-2,2.677156E-2,6.867173E-2,1.3671003E-2,-3.7822645E-2],"split_indices":[27,25,25,25,26,2,9,0,0,0,0,0,0,0,0],"split_type":[0,0,0,0,0,0,0,0,0,0,0,0,0,0,0],"sum_hessian":[4.956192E2,1.2827245E2,3.6734677E2,1.1799309E2,1.0279349E1,3.0110556E1,3.372362E2,2.1020458E1,9.697263E1,5.2307024E0,5.0486465E0,5.4957843E0,2.461477E1,3.1215796E2,2.507825E1],"tree_param":{"num_deleted":"0","num_feature":"28","num_nodes":"15","size_leaf_vector":"1"}},{"base_weights":[-4.040679E-2,-6.785506E-1,2.726288E-1,-7.4744105E-1,4.1856866E-2,1.6494186E-1,1.0600182E0,-4.051561E-2,1.7356802E-2,-3.309773E-3,2.2704175E-2,1.3984548E-2,6.732767E-2],"categories":[],"categories_nodes":[],"categories_segments":[],"categories_sizes":[],"default_left":[0,0,0,0,0,0,0,0,0,0,0,0,0],"id":10,"left_children":[1,3,5,7,-1,9,11,-1,-1,-1,-1,-1,-1],"loss_changes":[1.01776436E2,1.8438698E1,2.8589497E1,1.1565071E1,0E0,2.0299603E1,8.377827E0,0E0,0E0,0E0,0E0,0E0,0E0],"parents":[2147483647,0,0,1,1,2,2,3,3,5,5,6,6],"right_children":[2,4,6,8,-1,10,12,-1,-1,-1,-1,-1,-1],"split_conditions":[-6.72E1,8.3E1,9.66E1,7.777778E-1,4.1856866E-2,1.567E3,7E0,-4.051561E-2,1.7356802E-2,-3.309773E-3,2.2704175E-2,1.3984548E-2,6.732767E-2],"split_indices":[26,15,5,10,0,24,15,0,0,0,0,0,0],"split_type":[0,0,0,0,0,0,0,0,0,0,0,0,0],"sum_hessian":[5.063969E2,1.6618524E2,3.4021164E2,1.597506E2,6.4346533E0,3.0098834E2,3.922331E1,1.5152794E2,8.22265E0,1.6772287E2,1.3326547E2,1.1424339E1,2.7798967E1],"tree_param":{"num_deleted":"0","num_feature":"28","num_nodes":"13","size_leaf_vector":"1"}},{"base_weights":[-6.1581567E-2,-5.180183E-1,3.3643425E-1,-1.1153636E-1,-8.398141E-1,5.4957513E-2,6.214124E-1,-2.7594527E-2,3.0732607E-2,-4.5824897E-2,3.9286148E-2,-2.629225E-2,1.5794445E-2,-3.2604456E-2,3.4817066E-2],"categories":[],"categories_nodes":[],"categories_segments":[],"categories_sizes":[],"default_left":[0,0,0,0,0,0,0,0,0,0,0,0,0,0,0],"id":11,"left_children":[1,3,5,7,9,11,13,-1,-1,-1,-1,-1,-1,-1,-1],"loss_changes":[9.310154E1,3.0988686E1,2.1838266E1,3.4828823E1,1.7655464E1,2.13743E1,1.3633984E1,0E0,0E0,0E0,0E0,0E0,0E0,0E0,0E0],"parents":[2147483647,0,0,1,1,2,2,3,3,4,4,5,5,6,6],"right_children":[2,4,6,8,10,12,14,-1,-1,-1,-1,-1,-1,-1,-1],"split_conditions":[-2E1,1.3E1,7.11E1,7.7E1,2.6E1,7.41E1,-1.21E1,-2.7594527E-2,3.0732607E-2,-4.5824897E-2,3.9286148E-2,-2.629225E-2,1.5794445E-2,-3.2604456E-2,3.4817066E-2],"split_indices":[26,19,26,5,18,5,6,0,0,0,0,0,0,0,0],"split_type":[0,0,0,0,0,0,0,0,0,0,0,0,0,0,0],"sum_hessian":[5.0943985E2,2.372105E2,2.7222937E2,1.0584333E2,1.3136717E2,1.3803275E2,1.3419661E2,6.619874E1,3.964459E1,1.2613273E2,5.2344456E0,4.219826E1,9.583449E1,6.74077E0,1.2745584E2],"tree_param":{"num_deleted":"0","num_feature":"28","num_nodes":"15","size_leaf_vector":"1"}},{"base_weights":[7.5725545E-3,-6.4014196E-1,3.2573625E-1,-8.357772E-1,-2.6015028E-1,1.6369839E-1,1.0684401E0,-4.6767455E-2,2.449706E-2,-1.8877772E-3,-6.071515E-2,-3.931811E-3,3.7688505E-2,-3.0070726E-2,6.2104326E-2],"categories":[],"categories_nodes":[],"categories_segments":[],"categories_sizes":[],"default_left":[0,0,0,0,0,0,0,0,0,0,0,0,0,0,0],"id":12,"left_children":[1,3,5,7,9,11,13,-1,-1,-1,-1,-1,-1,-1,-1],"loss_changes":[1.0777928E2,1.2367836E1,4.184433E1,1.5627785E1,1.2726091E1,4.161622E1,1.929702E1,0E0,0E0,0E0,0E0,0E0,0E0,0E0,0E0],"parents":[2147483647,0,0,1,1,2,2,3,3,4,4,5,5,6,6],"right_children":[2,4,6,8,10,12,14,-1,-1,-1,-1,-1,-1,-1,-1],"split_conditions":[4.06E-1,7.94E1,5.9090906E-1,3E0,9.36E1,8.89E1,1.3726E3,-4.6767455E-2,2.449706E-2,-1.8877772E-3,-6.071515E-2,-3.931811E-3,3.7688505E-2,-3.0070726E-2,6.2104326E-2],"split_indices":[27,5,11,12,3,5,25,0,0,0,0,0,0,0,0],"split_type":[0,0,0,0,0,0,0,0,0,0,0,0,0,0,0],"sum_hessian":[5.2013403E2,1.7073042E2,3.494036E2,1.1134374E2,5.9386684E1,2.884392E2,6.0964375E1,1.0404618E2,7.2975616E0,4.9510822E1,9.875864E0,2.052687E2,8.317051E1,5.3401623E0,5.5624214E1],"tree_param":{"num_deleted":"0","num_feature":"28","num_nodes":"15","size_leaf_vector":"1"}},{"base_weights":[-3.283612E-2,-6.461053E-1,2.6180974E-1,-7.1462995E-1,4.959449E-2,3.5058004E-1,-7.641729E-1,-3.867091E-2,3.3107243E-2,1.3204929E-2,6.570771E-2,-9.946832E-2,-4.6401746E-3],"categories":[],"categories_nodes":[],"categories_segments":[],"categories_sizes":[],"default_left":[0,0,0,0,0,0,0,0,0,0,0,0,0],"id":13,"left_children":[1,3,5,7,-1,9,11,-1,-1,-1,-1,-1,-1],"loss_changes":[9.082219E1,1.9346146E1,3.1269257E1,1.3528137E1,0E0,2.5442894E1,2.2058569E1,0E0,0E0,0E0,0E0,0E0,0E0],"parents":[2147483647,0,0,1,1,2,2,3,3,5,5,6,6],"right_children":[2,4,6,8,-1,10,12,-1,-1,-1,-1,-1,-1],"split_conditions":[4.06E-1,1.041E2,1.9E1,1.25E2,4.959449E-2,7.7E-1,4.4444445E-1,-3.867091E-2,3.3107243E-2,1.3204929E-2,6.570771E-2,-9.946832E-2,-4.6401746E-3],"split_indices":[27,3,9,15,0,27,8,0,0,0,0,0,0],"split_type":[0,0,0,0,0,0,0,0,0,0,0,0,0],"sum_hessian":[4.9950394E2,1.616336E2,3.3787033E2,1.5601349E2,5.620116E0,3.1196347E2,2.5906858E1,1.5032463E2,5.6888576E0,2.8811948E2,2.3844013E1,8.075702E0,1.7831156E1],"tree_param":{"num_deleted":"0","num_feature":"28","num_nodes":"13","size_leaf_vector":"1"}},{"base_weights":[-6.407754E-2,-6.8802494E-1,1.407442E-1,-8.94486E-1,-1.5462217E-1,-1.2884833E0,1.9623742E-1,8.893407E-3,-5.061413E-2,-4.4303365E-2,1.7373307E-2,-1.08825944E-1,-0E0,4.8279357E-3,5.236271E-2],"categories":[],"categories_nodes":[],"categories_segments":[],"categories_sizes":[],"default_left":[0,0,0,0,0,0,0,0,0,0,0,0,0,0,0],"id":14,"left_children":[1,3,5,7,9,11,13,-1,-1,-1,-1,-1,-1,-1,-1],"loss_changes":[6.4747284E1,1.3475403E1,3.0517748E1,1.16987E1,1.4061976E1,1.6371206E1,3.0992184E1,0E0,0E0,0E0,0E0,0E0,0E0,0E0,0E0],"parents":[2147483647,0,0,1,1,2,2,3,3,4,4,5,5,6,6],"right_children":[2,4,6,8,10,12,14,-1,-1,-1,-1,-1,-1,-1,-1],"split_conditions":[-1.033E2,-6.5E0,-2.9E1,-1.51E1,4.3835616E-1,5.652174E-1,9.78E1,8.893407E-3,-5.061413E-2,-4.4303365E-2,1.7373307E-2,-1.08825944E-1,-0E0,4.8279357E-3,5.236271E-2],"split_indices":[26,6,16,7,10,8,5,0,0,0,0,0,0,0,0],"split_type":[0,0,0,0,0,0,0,0,0,0,0,0,0,0,0],"sum_hessian":[5.035729E2,1.2369896E2,3.7987396E2,8.8313194E1,3.5385765E1,1.2885216E1,3.6698874E2,8.581169E0,7.973202E1,1.40173025E1,2.1368464E1,6.9972324E0,5.8879833E0,3.301109E2,3.6877846E1],"tree_param":{"num_deleted":"0","num_feature":"28","num_nodes":"15","size_leaf_vector":"1"}},{"base_weights":[-9.9180624E-2,-3.9973444E-1,4.252616E-1,4.074197E-1,-5.191716E-1,2.3697495E-1,1.185074E0,-2.275294E-2,4.672105E-2,-6.0442902E-2,-2.0105382E-2,8.016343E-3,6.2353797E-2,2.5233114E-2,6.476951E-2],"categories":[],"categories_nodes":[],"categories_segments":[],"categories_sizes":[],"default_left":[0,0,0,0,0,0,0,0,0,0,0,0,0,0,0],"id":15,"left_children":[1,3,5,7,9,11,13,-1,-1,-1,-1,-1,-1,-1,-1],"loss_changes":[7.737221E1,3.039853E1,2.5023293E1,1.9293398E1,2.1108963E1,1.0809742E1,1.4693718E0,0E0,0E0,0E0,0E0,0E0,0E0,0E0,0E0],"parents":[2147483647,0,0,1,1,2,2,3,3,4,4,5,5,6,6],"right_children":[2,4,6,8,10,12,14,-1,-1,-1,-1,-1,-1,-1,-1],"split_conditions":[3.47E1,6.91E1,9.66E1,9E0,7.53E1,2.187E2,7.57E1,-2.275294E-2,4.672105E-2,-6.0442902E-2,-2.0105382E-2,8.016343E-3,6.2353797E-2,2.5233114E-2,6.476951E-2],"split_indices":[26,4,5,6,4,26,2,0,0,0,0,0,0,0,0],"split_type":[0,0,0,0,0,0,0,0,0,0,0,0,0,0,0],"sum_hessian":[4.8776694E2,3.104168E2,1.7735013E2,3.9438442E1,2.7097836E2,1.43812E2,3.353814E1,1.496389E1,2.4474552E1,3.716651E1,2.3381184E2,1.353765E2,8.435502E0,5.972047E0,2.7566092E1],"tree_param":{"num_deleted":"0","num_feature":"28","num_nodes":"15","size_leaf_vector":"1"}},{"base_weights":[-1.5270838E-3,-6.8127126E-1,1.9336042E-1,-9.845792E-1,6.671008E-2,5.5276055E-2,7.557271E-1,-6.0010303E-2,-1.6430151E-3,-3.0146947E-2,3.8704813E-2,1.6925905E-2,-1.3446408E-2,1.6861638E-2,4.754943E-2],"categories":[],"categories_nodes":[],"categories_segments":[],"categories_sizes":[],"default_left":[0,0,0,0,0,0,0,0,0,0,0,0,0,0,0],"id":16,"left_children":[1,3,5,7,9,11,13,-1,-1,-1,-1,-1,-1,-1,-1],"loss_changes":[6.774339E1,2.604808E1,3.0687687E1,1.649823E1,1.6914543E1,2.9576939E1,5.7647057E0,0E0,0E0,0E0,0E0,0E0,0E0,0E0,0E0],"parents":[2147483647,0,0,1,1,2,2,3,3,4,4,5,5,6,6],"right_children":[2,4,6,8,10,12,14,-1,-1,-1,-1,-1,-1,-1,-1],"split_conditions":[3.56E-1,5.6666666E-1,9.16E1,2.31E1,7.2E1,9E0,0E0,-6.0010303E-2,-1.6430151E-3,-3.0146947E-2,3.8704813E-2,1.6925905E-2,-1.3446408E-2,1.6861638E-2,4.754943E-2],"split_indices":[27,11,5,7,2,19,17,0,0,0,0,0,0,0,0],"split_type":[0,0,0,0,0,0,0,0,0,0,0,0,0,0,0],"sum_hessian":[5.0801273E2,1.1247678E2,3.9553595E2,7.978359E1,3.269319E1,3.1902686E2,7.650908E1,6.4641365E1,1.5142224E1,1.6835722E1,1.5857468E1,1.7039925E2,1.4862761E2,2.5805079E1,5.0704E1],"tree_param":{"num_deleted":"0","num_feature":"28","num_nodes":"15","size_leaf_vector":"1"}},{"base_weights":[3.169254E-2,-6.315311E-1,2.3842321E-1,-7.471869E-1,2.5331562E-2,4.220422E-1,-8.412674E-2,-1.3212377E-2,-5.097434E-2,7.901064E-3,3.4874335E-2,-1.6904404E-2,2.860641E-2],"categories":[],"categories_nodes":[],"categories_segments":[],"categories_sizes":[],"default_left":[0,0,0,0,0,0,0,0,0,0,0,0,0],"id":17,"left_children":[1,3,5,7,-1,9,11,-1,-1,-1,-1,-1,-1],"loss_changes":[6.6842285E1,1.5838184E1,2.2109169E1,1.3383907E1,0E0,1.7012936E1,2.2922802E1,0E0,0E0,0E0,0E0,0E0,0E0],"parents":[2147483647,0,0,1,1,2,2,3,3,5,5,6,6],"right_children":[2,4,6,8,-1,10,12,-1,-1,-1,-1,-1,-1],"split_conditions":[3.56E-1,4.7E0,5.4E0,7.25E1,2.5331562E-2,0E0,9.53E1,-1.3212377E-2,-5.097434E-2,7.901064E-3,3.4874335E-2,-1.6904404E-2,2.860641E-2],"split_indices":[27,6,7,5,0,12,3,0,0,0,0,0,0],"split_type":[0,0,0,0,0,0,0,0,0,0,0,0,0],"sum_hessian":[4.846526E2,1.143225E2,3.7033008E2,1.0432456E2,9.997938E0,2.3589102E2,1.3443906E2,3.8812054E1,6.551251E1,1.21833725E2,1.140573E2,9.7563126E1,3.6875927E1],"tree_param":{"num_deleted":"0","num_feature":"28","num_nodes":"13","size_leaf_vector":"1"}},{"base_weights":[7.0302435E-3,-7.146306E-1,1.4668784E-1,-9.3842965E-1,6.940664E-2,2.1151097E-2,7.1295637E-1,-5.3322643E-2,-3.8757075E-3,-4.415888E-2,4.7612283E-2,-2.4971708E-3,4.8933044E-2,5.374705E-3,4.8253518E-2],"categories":[],"categories_nodes":[],"categories_segments":[],"categories_sizes":[],"default_left":[0,0,0,0,0,0,0,0,0,0,0,0,0,0,0],"id":18,"left_children":[1,3,5,7,9,11,13,-1,-1,-1,-1,-1,-1,-1,-1],"loss_changes":[5.0691257E1,1.4490414E1,2.9898315E1,6.7745132E0,1.7585033E1,2.3791874E1,1.1395451E1,0E0,0E0,0E0,0E0,0E0,0E0,0E0,0E0],"parents":[2147483647,0,0,1,1,2,2,3,3,4,4,5,5,6,6],"right_children":[2,4,6,8,10,12,14,-1,-1,-1,-1,-1,-1,-1,-1],"split_conditions":[-1.385E2,5.888889E-1,7E0,1.002E2,7.48E1,1.523E2,7E0,-5.3322643E-2,-3.8757075E-3,-4.415888E-2,4.7612283E-2,-2.4971708E-3,4.8933044E-2,5.374705E-3,4.8253518E-2],"split_indices":[26,10,21,3,2,26,16,0,0,0,0,0,0,0,0],"split_type":[0,0,0,0,0,0,0,0,0,0,0,0,0,0,0],"sum_hessian":[5.0046558E2,8.0030045E1,4.2043552E2,6.2128098E1,1.790195E1,3.4556046E2,7.4875084E1,5.3672424E1,8.455674E0,8.556083E0,9.345869E0,3.2290247E2,2.2657986E1,2.275771E1,5.2117374E1],"tree_param":{"num_deleted":"0","num_feature":"28","num_nodes":"15","size_leaf_vector":"1"}},{"base_weights":[2.8328586E-2,-7.4832934E-1,1.7427735E-1,-1.0470972E-1,-1.1711208E0,5.0559837E-1,-5.766147E-2,-5.6556683E-2,7.2317966E-3,-7.4974924E-2,-1.10784015E-2,-2.7141286E-2,3.0521829E-2,-2.517556E-2,9.588596E-3],"categories":[],"categories_nodes":[],"categories_segments":[],"categories_sizes":[],"default_left":[0,0,0,0,0,0,0,0,0,0,0,0,0,0,0],"id":19,"left_children":[1,3,5,7,9,11,13,-1,-1,-1,-1,-1,-1,-1,-1],"loss_changes":[5.6796124E1,2.125248E1,3.2524826E1,8.830539E0,1.4167587E1,1.9644447E1,2.7917648E1,0E0,0E0,0E0,0E0,0E0,0E0,0E0,0E0],"parents":[2147483647,0,0,1,1,2,2,3,3,4,4,5,5,6,6],"right_children":[2,4,6,8,10,12,14,-1,-1,-1,-1,-1,-1,-1,-1],"split_conditions":[-1.74E1,7.77E1,-3E-1,4.99E1,1.87E1,1E1,9E0,-5.6556683E-2,7.2317966E-3,-7.4974924E-2,-1.10784015E-2,-2.7141286E-2,3.0521829E-2,-2.517556E-2,9.588596E-3],"split_indices":[6,3,7,2,7,9,18,0,0,0,0,0,0,0,0],"split_type":[0,0,0,0,0,0,0,0,0,0,0,0,0,0,0],"sum_hessian":[4.9833914E2,7.7745384E1,4.2059378E2,3.1658836E1,4.6086548E1,1.7264064E2,2.4795312E2,5.2292447E0,2.6429592E1,3.3520363E1,1.2566186E1,1.5037647E1,1.57603E2,8.854907E1,1.5940405E2],"tree_param":{"num_deleted":"0","num_feature":"28","num_nodes":"15","size_leaf_vector":"1"}},{"base_weights":[5.6628518E-2,-6.3896227E-1,1.7915653E-1,1.1795235E-1,-9.519405E-1,-1.1271187E0,2.300917E-1,3.1294096E-2,-6.327681E-2,-5.508552E-2,-1.4325471E-3,1.4291613E-2,-1.02988146E-1,4.7142085E-2,7.272566E-3],"categories":[],"categories_nodes":[],"categories_segments":[],"categories_sizes":[],"default_left":[0,0,0,0,0,0,0,0,0,0,0,0,0,0,0],"id":20,"left_children":[1,3,5,7,9,11,13,-1,-1,-1,-1,-1,-1,-1,-1],"loss_changes":[4.2534164E1,1.795468E1,2.8533745E1,1.7357885E1,7.1859818E0,2.2285044E1,2.440439E1,0E0,0E0,0E0,0E0,0E0,0E0,0E0,0E0],"parents":[2147483647,0,0,1,1,2,2,3,3,4,4,5,5,6,6],"right_children":[2,4,6,8,10,12,14,-1,-1,-1,-1,-1,-1,-1,-1],"split_conditions":[-1.74E1,4E-1,-2.5E1,7.52E1,1.8E1,7E-1,3E-1,3.1294096E-2,-6.327681E-2,-5.508552E-2,-1.4325471E-3,1.4291613E-2,-1.02988146E-1,4.7142085E-2,7.272566E-3],"split_indices":[6,1,16,3,9,0,1,0,0,0,0,0,0,0,0],"split_type":[0,0,0,0,0,0,0,0,0,0,0,0,0,0,0],"sum_hessian":[4.9608014E2,7.322782E1,4.2285233E2,2.1601461E1,5.1626358E1,1.4606271E1,4.0824603E2,1.6454206E1,5.1472545E0,4.407812E1,7.548238E0,6.178675E0,8.427596E0,4.159418E1,3.6665186E2],"tree_param":{"num_deleted":"0","num_feature":"28","num_nodes":"15","size_leaf_vector":"1"}},{"base_weights":[-3.250631E-2,-2.4926017E-1,4.9626455E-1,5.3168397E-2,-4.8621824E-1,3.5001132E-1,7.0962414E-2,-2.2464052E-2,1.2010556E-2,-1.023538E-2,-4.29696E-2,2.3965431E-2,-5.6701954E-2],"categories":[],"categories_nodes":[],"categories_segments":[],"categories_sizes":[],"default_left":[0,0,0,0,0,0,0,0,0,0,0,0,0],"id":21,"left_children":[1,3,5,7,9,11,-1,-1,-1,-1,-1,-1,-1],"loss_changes":[5.5520058E1,2.4713465E1,1.8084106E1,1.4441167E1,1.9909958E1,2.4471176E1,0E0,0E0,0E0,0E0,0E0,0E0,0E0],"parents":[2147483647,0,0,1,1,2,2,3,3,4,4,5,5],"right_children":[2,4,6,8,10,12,-1,-1,-1,-1,-1,-1,-1],"split_conditions":[1.5662E3,-3E-1,9.53E1,1.4199E3,2E0,9.14E1,7.0962414E-2,-2.2464052E-2,1.2010556E-2,-1.023538E-2,-4.29696E-2,2.3965431E-2,-5.6701954E-2],"split_indices":[24,7,3,24,13,3,0,0,0,0,0,0,0],"split_type":[0,0,0,0,0,0,0,0,0,0,0,0,0],"sum_hessian":[4.8150934E2,3.4221182E2,1.3929752E2,1.5066286E2,1.9154895E2,1.2212338E2,1.7174135E1,4.015569E1,1.1050717E2,1.1066074E2,8.088821E1,1.13332275E2,8.791108E0],"tree_param":{"num_deleted":"0","num_feature":"28","num_nodes":"13","size_leaf_vector":"1"}},{"base_weights":[-1.3790829E-3,-3.110536E-1,2.7742156E-1,-8.4058926E-2,-7.384048E-1,1.4259867E-1,8.645106E-1,-9.917038E-3,6.508577E-2,1.9042442E-2,-4.2291734E-2,3.913031E-2,-2.9414326E-3,1.6828133E-2,5.84695E-2],"categories":[],"categories_nodes":[],"categories_segments":[],"categories_sizes":[],"default_left":[0,0,0,0,0,0,0,0,0,0,0,0,0,0,0],"id":22,"left_children":[1,3,5,7,9,11,13,-1,-1,-1,-1,-1,-1,-1,-1],"loss_changes":[4.1610382E1,2.198878E1,1.9774227E1,2.4201036E1,1.0018574E1,2.6960373E1,6.807373E0,0E0,0E0,0E0,0E0,0E0,0E0,0E0,0E0],"parents":[2147483647,0,0,1,1,2,2,3,3,4,4,5,5,6,6],"right_children":[2,4,6,8,10,12,14,-1,-1,-1,-1,-1,-1,-1,-1],"split_conditions":[-2E1,5.3846157E-1,5.8064514E-1,5.217391E-1,7.17E1,-1.74E1,7.5E1,-9.917038E-3,6.508577E-2,1.9042442E-2,-4.2291734E-2,3.913031E-2,-2.9414326E-3,1.6828133E-2,5.84695E-2],"split_indices":[26,8,11,8,4,7,3,0,0,0,0,0,0,0,0],"split_type":[0,0,0,0,0,0,0,0,0,0,0,0,0,0,0],"sum_hessian":[4.7891232E2,2.26981E2,2.5193132E2,1.4956572E2,7.7415276E1,2.0653578E2,4.539553E1,1.3942511E2,1.0140615E1,6.3639755E0,7.10513E1,4.852447E1,1.580113E2,1.7893654E1,2.7501877E1],"tree_param":{"num_deleted":"0","num_feature":"28","num_nodes":"15","size_leaf_vector":"1"}},{"base_weights":[2.6622297E-2,-9.846905E-2,6.899045E-1,-5.8386064E-1,8.664115E-2,2.6338163E-1,9.976084E-1,-1.101646E-2,-5.7510864E-2,-1.7663062E-3,2.9567575E-2,5.22104E-2,-6.5761814E-3,2.830257E-2,6.540196E-2],"categories":[],"categories_nodes":[],"categories_segments":[],"categories_sizes":[],"default_left":[0,0,0,0,0,0,0,0,0,0,0,0,0,0,0],"id":23,"left_children":[1,3,5,7,9,11,13,-1,-1,-1,-1,-1,-1,-1,-1],"loss_changes":[4.092841E1,3.7375053E1,9.752941E0,2.3118E1,1.8632767E1,1.1083028E1,4.7034035E0,0E0,0E0,0E0,0E0,0E0,0E0,0E0,0E0],"parents":[2147483647,0,0,1,1,2,2,3,3,4,4,5,5,6,6],"right_children":[2,4,6,8,10,12,14,-1,-1,-1,-1,-1,-1,-1,-1],"split_conditions":[7E0,7.17E1,1.3E1,7.91E1,7.35E1,6.52E1,4.7619048E-1,-1.101646E-2,-5.7510864E-2,-1.7663062E-3,2.9567575E-2,5.22104E-2,-6.5761814E-3,2.830257E-2,6.540196E-2],"split_indices":[21,2,9,3,26,3,8,0,0,0,0,0,0,0,0],"split_type":[0,0,0,0,0,0,0,0,0,0,0,0,0,0,0],"sum_hessian":[4.8984552E2,4.1306946E2,7.677606E1,1.1329611E2,2.9977335E2,3.347865E1,4.329741E1,7.0380554E1,4.291556E1,2.4239384E2,5.737952E1,1.0501495E1,2.2977156E1,2.0021313E1,2.3276098E1],"tree_param":{"num_deleted":"0","num_feature":"28","num_nodes":"15","size_leaf_vector":"1"}},{"base_weights":[3.309597E-2,-2.60144E-1,2.921271E-1,8.6905444E-1,-3.3534405E-1,2.3368858E-1,5.7879962E-2,7.495932E-2,1.8920418E-3,-2.4910552E-2,8.471622E-3,6.360918E-2,9.225129E-3],"categories":[],"categories_nodes":[],"categories_segments":[],"categories_sizes":[],"default_left":[0,0,0,0,0,0,0,0,0,0,0,0,0],"id":24,"left_children":[1,3,5,7,9,11,-1,-1,-1,-1,-1,-1,-1],"loss_changes":[3.7538166E1,2.0057087E1,1.2730089E1,7.5131826E0,1.8112831E1,1.2162663E1,0E0,0E0,0E0,0E0,0E0,0E0,0E0],"parents":[2147483647,0,0,1,1,2,2,3,3,4,4,5,5],"right_children":[2,4,6,8,10,12,-1,-1,-1,-1,-1,-1,-1],"split_conditions":[-2E1,6.67E1,2.269E2,5.644172E-1,5.873016E-1,-1.08E1,5.7879962E-2,7.495932E-2,1.8920418E-3,-2.4910552E-2,8.471622E-3,6.360918E-2,9.225129E-3],"split_indices":[26,4,26,10,11,26,0,0,0,0,0,0,0],"split_type":[0,0,0,0,0,0,0,0,0,0,0,0,0],"sum_hessian":[4.9115167E2,2.3018027E2,2.6097144E2,1.3300236E1,2.1688004E2,2.463574E2,1.4614018E1,6.8111053E0,6.4891305E0,1.6413818E2,5.2741844E1,9.361972E0,2.3699544E2],"tree_param":{"num_deleted":"0","num_feature":"28","num_nodes":"13","size_leaf_vector":"1"}},{"base_weights":[6.982955E-2,-2.8913006E-1,2.640555E-1,-3.7130874E-1,8.096421E-2,-1.0965091E0,3.2875863E-1,-1.1015578E-2,-4.42965E-2,8.611436E-3,-9.6878655E-2,2.730758E-2,2.2905392E-3],"categories":[],"categories_nodes":[],"categories_segments":[],"categories_sizes":[],"default_left":[0,0,0,0,0,0,0,0,0,0,0,0,0],"id":25,"left_children":[1,3,5,7,-1,9,11,-1,-1,-1,-1,-1,-1],"loss_changes":[3.3075066E1,2.6895138E1,2.7556963E1,1.2102009E1,0E0,1.588023E1,1.8049793E1,0E0,0E0,0E0,0E0,0E0,0E0],"parents":[2147483647,0,0,1,1,2,2,3,3,5,5,6,6],"right_children":[2,4,6,8,-1,10,12,-1,-1,-1,-1,-1,-1],"split_conditions":[-2E0,2.1E1,-1.3E1,9E0,8.096421E-2,1.6E1,7E-1,-1.1015578E-2,-4.42965E-2,8.611436E-3,-9.6878655E-2,2.730758E-2,2.2905392E-3],"split_indices":[21,9,16,16,0,9,7,0,0,0,0,0,0],"split_type":[0,0,0,0,0,0,0,0,0,0,0,0,0],"sum_hessian":[4.7129684E2,1.6503633E2,3.062605E2,1.5943156E2,5.604767E0,1.274729E1,2.935132E2,1.25070564E2,3.4361004E1,5.509778E0,7.2375116E0,1.6499579E2,1.2851743E2],"tree_param":{"num_deleted":"0","num_feature":"28","num_nodes":"13","size_leaf_vector":"1"}},{"base_weights":[4.2697914E-2,-1.0398761E0,1.13075785E-1,-1.3215435E0,4.10281E-3,-9.061339E-2,3.745869E-1,-3.0105386E-2,-7.4479535E-2,4.5107704E-2,-7.7106515E-3,-3.873222E-2,2.232387E-2],"categories":[],"categories_nodes":[],"categories_segments":[],"categories_sizes":[],"default_left":[0,0,0,0,0,0,0,0,0,0,0,0,0],"id":26,"left_children":[1,3,5,7,-1,9,11,-1,-1,-1,-1,-1,-1],"loss_changes":[3.7369846E1,9.745914E0,2.4633007E1,1.3573914E0,0E0,1.655763E1,1.7202862E1,0E0,0E0,0E0,0E0,0E0,0E0],"parents":[2147483647,0,0,1,1,2,2,3,3,5,5,6,6],"right_children":[2,4,6,8,-1,10,12,-1,-1,-1,-1,-1,-1],"split_conditions":[-7E0,9.93E1,4.9E0,-1.4E1,4.10281E-3,2E-1,-8.92E1,-3.0105386E-2,-7.4479535E-2,4.5107704E-2,-7.7106515E-3,-3.873222E-2,2.232387E-2],"split_indices":[14,3,6,14,0,1,26,0,0,0,0,0,0],"split_type":[0,0,0,0,0,0,0,0,0,0,0,0,0],"sum_hessian":[4.8788864E2,2.8433378E1,4.5945526E2,2.2585432E1,5.8479447E0,2.5861765E2,2.0083762E2,5.690982E0,1.6894451E1,1.4284958E1,2.443327E2,1.087867E1,1.8995894E2],"tree_param":{"num_deleted":"0","num_feature":"28","num_nodes":"13","size_leaf_vector":"1"}},{"base_weights":[-2.9707234E-2,-2.7964377E-1,1.9087088E-1,-4.3906018E-1,1.9369808E-1,-6.78499E-2,2.457076E-1,5.342267E-3,-3.155553E-2,-1.08812405E-2,4.7914725E-2,-4.043758E-3,2.3027657E-2],"categories":[],"categories_nodes":[],"categories_segments":[],"categories_sizes":[],"default_left":[0,0,0,0,0,0,0,0,0,0,0,0,0],"id":27,"left_children":[1,3,5,7,9,-1,11,-1,-1,-1,-1,-1,-1],"loss_changes":[2.6050123E1,1.6872313E1,2.1678814E1,1.7596436E1,1.8221272E1,0E0,1.7184088E1,0E0,0E0,0E0,0E0,0E0,0E0],"parents":[2147483647,0,0,1,1,2,2,3,3,4,4,6,6],"right_children":[2,4,6,8,10,-1,12,-1,-1,-1,-1,-1,-1],"split_conditions":[7.95E1,5.652174E-1,-2.9E1,-9.3E0,4.56E-1,-6.78499E-2,9E0,5.342267E-3,-3.155553E-2,-1.08812405E-2,4.7914725E-2,-4.043758E-3,2.3027657E-2],"split_indices":[2,11,16,7,27,0,18,0,0,0,0,0,0],"split_type":[0,0,0,0,0,0,0,0,0,0,0,0,0],"sum_hessian":[4.6940393E2,2.2008165E2,2.493223E2,1.6487383E2,5.520782E1,7.2494764E0,2.4207281E2,4.2945515E1,1.21928314E2,3.650944E1,1.8698378E1,9.624399E1,1.4582883E2],"tree_param":{"num_deleted":"0","num_feature":"28","num_nodes":"13","size_leaf_vector":"1"}},{"base_weights":[5.1124595E-2,-2.3453843E-2,9.1838974E-1,-9.608066E-1,3.6312368E-2,1.0702769E0,-2.2666927E-3,-6.6558714E-3,-7.356167E-2,-2.4982853E-2,7.141189E-3,1.887038E-2,5.930621E-2],"categories":[],"categories_nodes":[],"categories_segments":[],"categories_sizes":[],"default_left":[0,0,0,0,0,0,0,0,0,0,0,0,0],"id":28,"left_children":[1,3,5,7,9,11,-1,-1,-1,-1,-1,-1,-1],"loss_changes":[3.1543434E1,2.5281607E1,5.827099E0,1.0973406E1,2.4227451E1,1.8615341E0,0E0,0E0,0E0,0E0,0E0,0E0,0E0],"parents":[2147483647,0,0,1,1,2,2,3,3,4,4,5,5],"right_children":[2,4,6,8,10,12,-1,-1,-1,-1,-1,-1,-1],"split_conditions":[9.66E1,3.617021E-1,6.888889E-1,0E0,-8E0,7.39E1,-2.2666927E-3,-6.6558714E-3,-7.356167E-2,-2.4982853E-2,7.141189E-3,1.887038E-2,5.930621E-2],"split_indices":[5,10,10,14,21,4,0,0,0,0,0,0,0],"split_type":[0,0,0,0,0,0,0,0,0,0,0,0,0],"sum_hessian":[4.843068E2,4.4719537E2,3.7111393E1,2.5549221E1,4.2164618E2,3.2005157E1,5.1062346E0,1.0541927E1,1.5007294E1,6.88276E1,3.5281857E2,5.6232247E0,2.6381931E1],"tree_param":{"num_deleted":"0","num_feature":"28","num_nodes":"13","size_leaf_vector":"1"}},{"base_weights":[4.9466595E-2,-6.8597347E-1,1.7559104E-1,-1.0705562E-1,-1.0717472E0,9.981282E-1,1.030598E-1,-5.41743E-2,2.3562714E-2,-6.332161E-2,-6.306264E-3,1.8994441E-2,5.8051515E-2,-1.5402796E-3,2.834457E-2],"categories":[],"categories_nodes":[],"categories_segments":[],"categories_sizes":[],"default_left":[0,0,0,0,0,0,0,0,0,0,0,0,0,0,0],"id":29,"left_children":[1,3,5,7,9,11,13,-1,-1,-1,-1,-1,-1,-1,-1],"loss_changes":[4.350548E1,1.5040775E1,2.3628262E1,1.7327694E1,7.155327E0,2.424076E0,2.3041964E1,0E0,0E0,0E0,0E0,0E0,0E0,0E0,0E0],"parents":[2147483647,0,0,1,1,2,2,3,3,4,4,5,5,6,6],"right_children":[2,4,6,8,10,12,14,-1,-1,-1,-1,-1,-1,-1,-1],"split_conditions":[-1.74E1,7.8E1,-2.67E1,-1.562E2,9.61E1,6.03E1,5.974026E-1,-5.41743E-2,2.3562714E-2,-6.332161E-2,-6.306264E-3,1.8994441E-2,5.8051515E-2,-1.5402796E-3,2.834457E-2],"split_indices":[6,3,7,26,3,3,11,0,0,0,0,0,0,0,0],"split_type":[0,0,0,0,0,0,0,0,0,0,0,0,0,0,0],"sum_hessian":[4.6612894E2,6.714584E1,3.989831E2,2.7721134E1,3.942471E1,3.0668428E1,3.6831467E2,9.888239E0,1.7832895E1,3.2184013E1,7.2406974E0,7.566026E0,2.3102402E1,2.8674316E2,8.157152E1],"tree_param":{"num_deleted":"0","num_feature":"28","num_nodes":"15","size_leaf_vector":"1"}},{"base_weights":[7.4968785E-2,-5.493378E-1,1.8002959E-1,2.5898224E-1,-1.0938148E0,-6.6113465E-2,3.2434073E-1,4.12527E-2,-4.2540226E-2,-4.0617004E-2,-7.730035E-2,-9.386263E-3,5.216406E-2,2.7273804E-2,4.8384196E-3],"categories":[],"categories_nodes":[],"categories_segments":[],"categories_sizes":[],"default_left":[0,0,0,0,0,0,0,0,0,0,0,0,0,0,0],"id":30,"left_children":[1,3,5,7,9,11,13,-1,-1,-1,-1,-1,-1,-1,-1],"loss_changes":[3.073253E1,3.0207458E1,1.4297531E1,1.8828154E1,3.0583725E0,2.0331196E1,1.2599825E1,0E0,0E0,0E0,0E0,0E0,0E0,0E0,0E0],"parents":[2147483647,0,0,1,1,2,2,3,3,4,4,5,5,6,6],"right_children":[2,4,6,8,10,12,14,-1,-1,-1,-1,-1,-1,-1,-1],"split_conditions":[-1.77E1,7.61E1,7E0,4E-1,1E1,9.08E1,8.13E1,4.12527E-2,-4.2540226E-2,-4.0617004E-2,-7.730035E-2,-9.386263E-3,5.216406E-2,2.7273804E-2,4.8384196E-3],"split_indices":[6,3,18,1,20,4,3,0,0,0,0,0,0,0,0],"split_type":[0,0,0,0,0,0,0,0,0,0,0,0,0,0,0],"sum_hessian":[4.653554E2,6.598073E1,3.993747E2,2.6798721E1,3.9182007E1,1.4765245E2,2.5172224E2,1.806117E1,8.737551E0,2.6871315E1,1.2310692E1,1.3427008E2,1.3382362E1,1.2638109E2,1.2534115E2],"tree_param":{"num_deleted":"0","num_feature":"28","num_nodes":"15","size_leaf_vector":"1"}},{"base_weights":[-9.362691E-2,-2.2021548E-1,3.0092496E-1,-3.2918593E-1,3.4963056E-1,4.3176526E-1,-7.912918E-1,-7.2967536E-3,-4.122973E-2,9.647414E-3,6.4980835E-2,-1.6298064E-3,3.8355812E-2,-7.2446965E-2,-8.5706497E-4],"categories":[],"categories_nodes":[],"categories_segments":[],"categories_sizes":[],"default_left":[0,0,0,0,0,0,0,0,0,0,0,0,0,0,0],"id":31,"left_children":[1,3,5,7,9,11,13,-1,-1,-1,-1,-1,-1,-1,-1],"loss_changes":[2.3482056E1,2.2253426E1,1.6796488E1,2.6908066E1,8.0582695E0,1.6156132E1,6.2639866E0,0E0,0E0,0E0,0E0,0E0,0E0,0E0,0E0],"parents":[2147483647,0,0,1,1,2,2,3,3,4,4,5,5,6,6],"right_children":[2,4,6,8,10,12,14,-1,-1,-1,-1,-1,-1,-1,-1],"split_conditions":[7.35E1,6.875E-1,9E-1,5.3846157E-1,8.88E1,1E0,7E0,-7.2967536E-3,-4.122973E-2,9.647414E-3,6.4980835E-2,-1.6298064E-3,3.8355812E-2,-7.2446965E-2,-8.5706497E-4],"split_indices":[26,8,0,8,5,12,16,0,0,0,0,0,0,0,0],"split_type":[0,0,0,0,0,0,0,0,0,0,0,0,0,0,0],"sum_hessian":[4.6682254E2,3.5412183E2,1.1270071E2,2.9795374E2,5.616809E1,1.01535965E2,1.1164743E1,2.1906548E2,7.888825E1,4.9855324E1,6.3127694E0,4.3020863E1,5.85151E1,5.2598267E0,5.9049172E0],"tree_param":{"num_deleted":"0","num_feature":"28","num_nodes":"15","size_leaf_vector":"1"}},{"base_weights":[-5.8673464E-2,8.193186E-1,-1.2548214E-1,9.6096545E-2,5.9555925E-2,-1.1134106E0,-6.408222E-2,-3.687584E-2,3.761728E-2,-2.3082932E-2,-7.7891946E-2,-3.2450132E-2,1.417529E-3],"categories":[],"categories_nodes":[],"categories_segments":[],"categories_sizes":[],"default_left":[0,0,0,0,0,0,0,0,0,0,0,0,0],"id":32,"left_children":[1,3,5,7,-1,9,11,-1,-1,-1,-1,-1,-1],"loss_changes":[2.826735E1,8.860146E0,2.6943752E1,8.104261E0,0E0,6.2563744E0,2.297955E1,0E0,0E0,0E0,0E0,0E0,0E0],"parents":[2147483647,0,0,1,1,2,2,3,3,5,5,6,6],"right_children":[2,4,6,8,-1,10,12,-1,-1,-1,-1,-1,-1],"split_conditions":[-2.6E1,0E0,3.561644E-1,7.94E1,5.9555925E-2,1E1,-1.77E1,-3.687584E-2,3.761728E-2,-2.3082932E-2,-7.7891946E-2,-3.2450132E-2,1.417529E-3],"split_indices":[7,17,10,4,0,20,6,0,0,0,0,0,0],"split_type":[0,0,0,0,0,0,0,0,0,0,0,0,0],"sum_hessian":[4.7895898E2,3.256756E1,4.4639145E2,1.1790138E1,2.077742E1,2.4520813E1,4.2187064E2,5.0443354E0,6.7458024E0,1.1272667E1,1.3248147E1,5.648431E1,3.6538632E2],"tree_param":{"num_deleted":"0","num_feature":"28","num_nodes":"13","size_leaf_vector":"1"}},{"base_weights":[-3.0813E-3,-7.030167E-2,7.7604264E-1,1.63826E-1,-4.1158652E-1,1.1571934E-1,6.1291803E-2,-6.4111024E-2,1.0764284E-2,-1.2001614E-2,-5.6669515E-2,-4.3914508E-2,5.065432E-2],"categories":[],"categories_nodes":[],"categories_segments":[],"categories_sizes":[],"default_left":[0,0,0,0,0,0,0,0,0,0,0,0,0],"id":33,"left_children":[1,3,5,7,9,11,-1,-1,-1,-1,-1,-1,-1],"loss_changes":[2.3889797E1,3.378267E1,1.0410311E1,1.8964706E1,2.0751486E1,1.5995871E1,0E0,0E0,0E0,0E0,0E0,0E0,0E0],"parents":[2147483647,0,0,1,1,2,2,3,3,4,4,5,5],"right_children":[2,4,6,8,10,12,-1,-1,-1,-1,-1,-1,-1],"split_conditions":[9.66E1,8.3E1,7.94E1,-2.9E1,1.7E1,1.5417E3,6.1291803E-2,-6.4111024E-2,1.0764284E-2,-1.2001614E-2,-5.6669515E-2,-4.3914508E-2,5.065432E-2],"split_indices":[5,4,4,16,19,24,0,0,0,0,0,0,0],"split_type":[0,0,0,0,0,0,0,0,0,0,0,0,0],"sum_hessian":[4.5443225E2,4.1971365E2,3.471858E1,2.492266E2,1.7048708E2,1.4921365E1,1.9797213E1,7.2647295E0,2.4196187E2,1.3947484E2,3.1012232E1,7.0417266E0,7.879638E0],"tree_param":{"num_deleted":"0","num_feature":"28","num_nodes":"13","size_leaf_vector":"1"}},{"base_weights":[3.410367E-2,-4.002077E-1,1.0465765E-1,3.4984313E-2,-7.528175E-1,2.5246823E-2,6.4601594E-1,3.0839173E-2,-4.5929566E-2,-2.8250646E-3,-5.822087E-2,1.6046189E-2,-7.5209895E-3,5.2935358E-2,-3.8183007E-2],"categories":[],"categories_nodes":[],"categories_segments":[],"categories_sizes":[],"default_left":[0,0,0,0,0,0,0,0,0,0,0,0,0,0,0],"id":34,"left_children":[1,3,5,7,9,11,13,-1,-1,-1,-1,-1,-1,-1,-1],"loss_changes":[1.47923355E1,1.0457591E1,1.7780598E1,1.8286795E1,1.0509386E1,1.900996E1,3.205211E1,0E0,0E0,0E0,0E0,0E0,0E0,0E0,0E0],"parents":[2147483647,0,0,1,1,2,2,3,3,4,4,5,5,6,6],"right_children":[2,4,6,8,10,12,14,-1,-1,-1,-1,-1,-1,-1,-1],"split_conditions":[-1.77E1,7.66E1,8.83E1,4E-1,5.350877E-1,-7E-1,6.1904764E-1,3.0839173E-2,-4.5929566E-2,-2.8250646E-3,-5.822087E-2,1.6046189E-2,-7.5209895E-3,5.2935358E-2,-3.8183007E-2],"split_indices":[6,3,4,1,10,7,10,0,0,0,0,0,0,0,0],"split_type":[0,0,0,0,0,0,0,0,0,0,0,0,0,0,0],"sum_hessian":[4.8015503E2,6.592326E1,4.1423178E2,2.9984226E1,3.5939034E1,3.627721E2,5.145968E1,1.9016476E1,1.0967751E1,1.4075663E1,2.186337E1,1.3495265E2,2.2781944E2,4.014994E1,1.1309741E1],"tree_param":{"num_deleted":"0","num_feature":"28","num_nodes":"15","size_leaf_vector":"1"}},{"base_weights":[-3.9420135E-2,-9.449113E-2,6.644004E-1,-1.0985813E0,-5.371683E-2,9.4297147E-1,-1.6393462E-2,2.0690603E-2,-1.09350376E-1,-4.714791E-2,-1.12330716E-4,1.4523956E-2,5.965949E-2],"categories":[],"categories_nodes":[],"categories_segments":[],"categories_sizes":[],"default_left":[0,0,0,0,0,0,0,0,0,0,0,0,0],"id":35,"left_children":[1,3,5,7,9,11,-1,-1,-1,-1,-1,-1,-1],"loss_changes":[1.760656E1,1.7066689E1,9.632913E0,2.8348164E1,1.8532646E1,3.6080017E0,0E0,0E0,0E0,0E0,0E0,0E0,0E0],"parents":[2147483647,0,0,1,1,2,2,3,3,4,4,5,5],"right_children":[2,4,6,8,10,12,-1,-1,-1,-1,-1,-1,-1],"split_conditions":[9.66E1,1.3741E3,6.4285713E-1,8.63E1,-3.53E1,4.4117647E-1,-1.6393462E-2,2.0690603E-2,-1.09350376E-1,-4.714791E-2,-1.12330716E-4,1.4523956E-2,5.965949E-2],"split_indices":[5,25,8,5,6,11,0,0,0,0,0,0,0],"split_type":[0,0,0,0,0,0,0,0,0,0,0,0,0],"sum_hessian":[4.5178525E2,4.203364E2,3.1448856E1,1.4788724E1,4.0554767E2,2.4692074E1,6.7567825E0,6.5396137E0,8.24911E0,2.0661375E1,3.848863E2,7.853519E0,1.6838554E1],"tree_param":{"num_deleted":"0","num_feature":"28","num_nodes":"13","size_leaf_vector":"1"}},{"base_weights":[-1.2854481E-2,-6.4890794E-2,8.7211096E-1,-5.435487E-1,9.696714E-3,5.5637635E-2,1.6635917E-2,-3.79113E-2,9.723829E-3,-4.6009156E-3,1.7566614E-2],"categories":[],"categories_nodes":[],"categories_segments":[],"categories_sizes":[],"default_left":[0,0,0,0,0,0,0,0,0,0,0],"id":36,"left_children":[1,3,5,7,9,-1,-1,-1,-1,-1,-1],"loss_changes":[2.154212E1,1.5885566E1,2.6711597E0,9.777929E0,1.3444997E1,0E0,0E0,0E0,0E0,0E0,0E0],"parents":[2147483647,0,0,1,1,2,2,3,3,4,4],"right_children":[2,4,6,8,10,-1,-1,-1,-1,-1,-1],"split_conditions":[2.019E2,-8E0,6.545454E-1,8.07E1,5.8064514E-1,5.5637635E-2,1.6635917E-2,-3.79113E-2,9.723829E-3,-4.6009156E-3,1.7566614E-2],"split_indices":[26,21,10,2,11,0,0,0,0,0,0],"split_type":[0,0,0,0,0,0,0,0,0,0,0],"sum_hessian":[4.6620456E2,4.4173346E2,2.447109E1,5.8462948E1,3.8327054E2,1.5690957E1,8.780133E0,4.5362354E1,1.31005945E1,2.9595825E2,8.731227E1],"tree_param":{"num_deleted":"0","num_feature":"28","num_nodes":"11","size_leaf_vector":"1"}},{"base_weights":[2.5435134E-3,9.160553E-1,-6.256284E-2,-3.0425142E-3,5.793291E-2,-4.0185922E-1,1.1080613E-1,-4.3858305E-2,-5.646416E-3,1.0225292E-3,3.7072215E-2],"categories":[],"categories_nodes":[],"categories_segments":[],"categories_sizes":[],"default_left":[0,0,0,0,0,0,0,0,0,0,0],"id":37,"left_children":[1,3,5,-1,-1,7,9,-1,-1,-1,-1],"loss_changes":[2.77283E1,7.5680294E0,2.5614159E1,0E0,0E0,1.997051E1,1.6316854E1,0E0,0E0,0E0,0E0],"parents":[2147483647,0,0,1,1,2,2,5,5,6,6],"right_children":[2,4,6,-1,-1,8,10,-1,-1,-1,-1],"split_conditions":[-2.6E1,5.76E1,-5.8E0,-3.0425142E-3,5.793291E-2,4.7826087E-1,7.2727275E-1,-4.3858305E-2,-5.646416E-3,1.0225292E-3,3.7072215E-2],"split_indices":[7,3,6,0,0,11,8,0,0,0,0],"split_type":[0,0,0,0,0,0,0,0,0,0,0],"sum_hessian":[4.6183405E2,2.9523165E1,4.3231088E2,6.0147448E0,2.350842E1,1.4572186E2,2.86589E2,5.3806812E1,9.1915054E1,2.5216669E2,3.4422314E1],"tree_param":{"num_deleted":"0","num_feature":"28","num_nodes":"11","size_leaf_vector":"1"}},{"base_weights":[3.260578E-2,4.9165893E-1,-1.14136614E-1,7.328377E-1,-0E0,-2.689518E-1,2.4412908E-1,-1.9972747E-2,4.3756526E-2,3.4688126E-2,-2.1671796E-2,-3.1883623E-2,-2.6979283E-3,-6.4118594E-2,1.8428164E-2],"categories":[],"categories_nodes":[],"categories_segments":[],"categories_sizes":[],"default_left":[0,0,0,0,0,0,0,0,0,0,0,0,0,0,0],"id":38,"left_children":[1,3,5,7,9,11,13,-1,-1,-1,-1,-1,-1,-1,-1],"loss_changes":[3.0761972E1,1.3160841E1,1.9276638E1,1.2542835E1,1.1810648E1,1.908823E1,2.0545002E1,0E0,0E0,0E0,0E0,0E0,0E0,0E0,0E0],"parents":[2147483647,0,0,1,1,2,2,3,3,4,4,5,5,6,6],"right_children":[2,4,6,8,10,12,14,-1,-1,-1,-1,-1,-1,-1,-1],"split_conditions":[3.382353E-1,1.6E1,5.8064514E-1,1E1,1.452E3,1.4764E3,1.3741E3,-1.9972747E-2,4.3756526E-2,3.4688126E-2,-2.1671796E-2,-3.1883623E-2,-2.6979283E-3,-6.4118594E-2,1.8428164E-2],"split_indices":[11,18,11,9,24,24,25,0,0,0,0,0,0,0,0],"split_type":[0,0,0,0,0,0,0,0,0,0,0,0,0,0,0],"sum_hessian":[4.5335278E2,1.0912708E2,3.442257E2,7.2799385E1,3.6327698E1,2.4081628E2,1.03409424E2,7.746116E0,6.505327E1,1.3570498E1,2.27572E1,8.743985E1,1.5337643E2,6.6815224E0,9.6727905E1],"tree_param":{"num_deleted":"0","num_feature":"28","num_nodes":"15","size_leaf_vector":"1"}},{"base_weights":[-5.8170334E-2,-1.5963846E-1,5.828134E-1,3.3071335E-2,-4.3849155E-1,-2.945208E-2,7.20186E-1,4.0764534E-3,-6.833189E-2,-2.5271673E-2,5.7566267E-2,1.5271393E-2,5.483681E-2],"categories":[],"categories_nodes":[],"categories_segments":[],"categories_sizes":[],"default_left":[0,0,0,0,0,0,0,0,0,0,0,0,0],"id":39,"left_children":[1,3,5,7,9,-1,11,-1,-1,-1,-1,-1,-1],"loss_changes":[3.0075367E1,2.1516651E1,1.0820274E1,1.6131853E1,1.8205883E1,0E0,8.306646E0,0E0,0E0,0E0,0E0,0E0,0E0],"parents":[2147483647,0,0,1,1,2,2,3,3,4,4,6,6],"right_children":[2,4,6,8,10,-1,12,-1,-1,-1,-1,-1,-1],"split_conditions":[1.99E1,1.5483E3,-2.5E1,1.69E1,2.3E1,-2.945208E-2,1.4E1,4.0764534E-3,-6.833189E-2,-2.5271673E-2,5.7566267E-2,1.5271393E-2,5.483681E-2],"split_indices":[6,25,16,6,18,0,9,0,0,0,0,0,0],"split_type":[0,0,0,0,0,0,0,0,0,0,0,0,0],"sum_hessian":[4.5942245E2,3.9774207E2,6.1680393E1,2.3576978E2,1.6197229E2,5.878041E0,5.580235E1,2.29315E2,6.45478E0,1.5646988E2,5.5024023E0,2.797311E1,2.7829239E1],"tree_param":{"num_deleted":"0","num_feature":"28","num_nodes":"13","size_leaf_vector":"1"}},{"base_weights":[-1.629158E-2,-3.794658E-1,9.295844E-2,4.992137E-1,-5.072907E-1,-1.0819842E0,1.4013453E-1,-2.4597067E-2,6.060043E-2,-1.6489176E-2,-5.3865798E-2,5.94892E-5,-8.8617586E-2,-4.944549E-2,8.55706E-3],"categories":[],"categories_nodes":[],"categories_segments":[],"categories_sizes":[],"default_left":[0,0,0,0,0,0,0,0,0,0,0,0,0,0,0],"id":40,"left_children":[1,3,5,7,9,11,13,-1,-1,-1,-1,-1,-1,-1,-1],"loss_changes":[1.9161173E1,1.2927776E1,2.0678892E1,1.1453417E1,9.279541E0,1.0947323E1,1.269672E1,0E0,0E0,0E0,0E0,0E0,0E0,0E0,0E0],"parents":[2147483647,0,0,1,1,2,2,3,3,4,4,5,5,6,6],"right_children":[2,4,6,8,10,12,14,-1,-1,-1,-1,-1,-1,-1,-1],"split_conditions":[-1.033E2,-1E0,-2.9E1,5E-1,-1.202E2,1.5453E3,5.59E1,-2.4597067E-2,6.060043E-2,-1.6489176E-2,-5.3865798E-2,5.94892E-5,-8.8617586E-2,-4.944549E-2,8.55706E-3],"split_indices":[26,13,16,1,26,24,2,0,0,0,0,0,0,0,0],"split_type":[0,0,0,0,0,0,0,0,0,0,0,0,0,0,0],"sum_hessian":[4.793759E2,1.1021133E2,3.6916455E2,1.3343878E1,9.686745E1,1.2898525E1,3.5626602E2,5.7177315E0,7.626147E0,7.580488E1,2.106257E1,5.5473685E0,7.351157E0,8.197712E0,3.4806833E2],"tree_param":{"num_deleted":"0","num_feature":"28","num_nodes":"15","size_leaf_vector":"1"}},{"base_weights":[-1.6573331E-3,-8.837403E-2,6.0135967E-1,-1.6129309E-1,7.3493403E-1,-4.0017694E-2,7.7054715E-1,-6.042238E-3,-6.288729E-2,5.6902934E-2,1.3791065E-2,4.9987823E-2,1.0682582E-2],"categories":[],"categories_nodes":[],"categories_segments":[],"categories_sizes":[],"default_left":[0,0,0,0,0,0,0,0,0,0,0,0,0],"id":41,"left_children":[1,3,5,7,9,-1,11,-1,-1,-1,-1,-1,-1],"loss_changes":[2.3252048E1,2.3518042E1,1.4175068E1,1.5571907E1,5.2858753E0,0E0,6.0289955E0,0E0,0E0,0E0,0E0,0E0,0E0],"parents":[2147483647,0,0,1,1,2,2,3,3,4,4,6,6],"right_children":[2,4,6,8,10,-1,12,-1,-1,-1,-1,-1,-1],"split_conditions":[1.6E1,2.32E1,3.561644E-1,2.1E1,3E0,-4.0017694E-2,7.6E0,-6.042238E-3,-6.288729E-2,5.6902934E-2,1.3791065E-2,4.9987823E-2,1.0682582E-2],"split_indices":[20,6,10,9,21,0,6,0,0,0,0,0,0],"split_type":[0,0,0,0,0,0,0,0,0,0,0,0,0],"sum_hessian":[4.426174E2,3.8823358E2,5.4383823E1,3.578656E2,3.0367975E1,5.19085E0,4.9192974E1,3.468276E2,1.1038009E1,1.4872824E1,1.5495152E1,3.387723E1,1.53157425E1],"tree_param":{"num_deleted":"0","num_feature":"28","num_nodes":"13","size_leaf_vector":"1"}},{"base_weights":[1.2873338E-2,4.4944033E-1,-6.489075E-2,-4.3069895E-2,5.9025276E-1,-3.0793512E-1,9.917355E-2,6.594192E-3,4.636553E-2,5.1768026E-3,-3.4712847E-2,-6.726643E-2,8.194921E-3],"categories":[],"categories_nodes":[],"categories_segments":[],"categories_sizes":[],"default_left":[0,0,0,0,0,0,0,0,0,0,0,0,0],"id":42,"left_children":[1,3,5,-1,7,9,11,-1,-1,-1,-1,-1,-1],"loss_changes":[1.55127E1,1.3490957E1,1.5494793E1,0E0,9.499542E0,2.5049965E1,2.1891922E1,0E0,0E0,0E0,0E0,0E0,0E0],"parents":[2147483647,0,0,1,1,2,2,4,4,5,5,6,6],"right_children":[2,4,6,-1,8,10,12,-1,-1,-1,-1,-1,-1],"split_conditions":[-1.39E1,3.617021E-1,-2.8E0,-4.3069895E-2,7.96E1,4.5E-1,-2.9E1,6.594192E-3,4.636553E-2,5.1768026E-3,-3.4712847E-2,-6.726643E-2,8.194921E-3],"split_indices":[7,10,6,0,4,8,16,0,0,0,0,0,0],"split_type":[0,0,0,0,0,0,0,0,0,0,0,0,0],"sum_hessian":[4.530169E2,6.760418E1,3.8541272E2,5.7442393E0,6.185994E1,1.5503639E2,2.3037631E2,2.7222858E1,3.463708E1,7.548089E1,7.955551E1,8.54091E0,2.218354E2],"tree_param":{"num_deleted":"0","num_feature":"28","num_nodes":"13","size_leaf_vector":"1"}},{"base_weights":[-2.4803946E-2,-8.19531E-2,8.624901E-1,-7.0383036E-1,-2.3318624E-2,3.2444291E-3,5.4660566E-2,-1.4924146E-2,-5.227874E-2,3.176588E-2,-4.044423E-3],"categories":[],"categories_nodes":[],"categories_segments":[],"categories_sizes":[],"default_left":[0,0,0,0,0,0,0,0,0,0,0],"id":43,"left_children":[1,3,5,7,9,-1,-1,-1,-1,-1,-1],"loss_changes":[2.288973E1,1.54012575E1,4.8026676E0,4.4431744E0,1.4814051E1,0E0,0E0,0E0,0E0,0E0,0E0],"parents":[2147483647,0,0,1,1,2,2,3,3,4,4],"right_children":[2,4,6,8,10,-1,-1,-1,-1,-1,-1],"split_conditions":[9.66E1,6.24E1,5.73E1,5.74E1,6.35E1,3.2444291E-3,5.4660566E-2,-1.4924146E-2,-5.227874E-2,3.176588E-2,-4.044423E-3],"split_indices":[5,2,26,2,4,0,0,0,0,0,0],"split_type":[0,0,0,0,0,0,0,0,0,0,0],"sum_hessian":[4.4935025E2,4.235446E2,2.5805655E1,3.4924484E1,3.8862012E2,6.3183727E0,1.9487282E1,1.7394901E1,1.7529583E1,2.988829E1,3.5873184E2],"tree_param":{"num_deleted":"0","num_feature":"28","num_nodes":"11","size_leaf_vector":"1"}},{"base_weights":[-2.1104159E-2,-1.0475838E-1,4.07073E-1,-1.6682664E-1,5.8837056E-1,-5.682112E-1,7.408707E-1,-6.3521066E-3,-7.841659E-2,4.2565178E-2,-9.961188E-3,3.1762496E-2,-6.390103E-2,8.34355E-3,5.436855E-2],"categories":[],"categories_nodes":[],"categories_segments":[],"categories_sizes":[],"default_left":[0,0,0,0,0,0,0,0,0,0,0,0,0,0,0],"id":44,"left_children":[1,3,5,7,9,11,13,-1,-1,-1,-1,-1,-1,-1,-1],"loss_changes":[1.5788361E1,1.599466E1,2.40881E1,1.8505417E1,6.64697E0,1.7624727E1,1.0415783E1,0E0,0E0,0E0,0E0,0E0,0E0,0E0,0E0],"parents":[2147483647,0,0,1,1,2,2,3,3,4,4,5,5,6,6],"right_children":[2,4,6,8,10,12,14,-1,-1,-1,-1,-1,-1,-1,-1],"split_conditions":[6.1538464E-1,6E0,7.25E1,1.6558E3,6.792453E-1,1.5102E3,7.56E1,-6.3521066E-3,-7.841659E-2,4.2565178E-2,-9.961188E-3,3.1762496E-2,-6.390103E-2,8.34355E-3,5.436855E-2],"split_indices":[11,14,2,24,10,25,4,0,0,0,0,0,0,0,0],"split_type":[0,0,0,0,0,0,0,0,0,0,0,0,0,0,0],"sum_hessian":[4.3834204E2,3.678422E2,7.049985E1,3.387877E2,2.9054487E1,1.7631493E1,5.286836E1,3.310962E2,7.6914983E0,2.1786758E1,7.2677293E0,6.5473433E0,1.108415E1,2.0846235E1,3.202212E1],"tree_param":{"num_deleted":"0","num_feature":"28","num_nodes":"15","size_leaf_vector":"1"}},{"base_weights":[-4.046056E-2,-1.7021714E-1,2.7685612E-1,-2.5826287E-1,3.6832234E-1,3.9478073E-1,-5.638939E-2,-2.2179147E-2,-0E0,-5.0193377E-2,3.17083E-2,1.2071161E-2,4.611456E-2],"categories":[],"categories_nodes":[],"categories_segments":[],"categories_sizes":[],"default_left":[0,0,0,0,0,0,0,0,0,0,0,0,0],"id":45,"left_children":[1,3,5,7,9,11,-1,-1,-1,-1,-1,-1,-1],"loss_changes":[1.8324547E1,1.5115173E1,2.1977995E1,1.3020332E1,1.728307E1,9.2794075E0,0E0,0E0,0E0,0E0,0E0,0E0,0E0],"parents":[2147483647,0,0,1,1,2,2,3,3,4,4,5,5],"right_children":[2,4,6,8,10,12,-1,-1,-1,-1,-1,-1,-1],"split_conditions":[1.567E3,2E0,8E0,7.95E1,5E0,7.058824E-1,-5.638939E-2,-2.2179147E-2,-0E0,-5.0193377E-2,3.17083E-2,1.2071161E-2,4.611456E-2],"split_indices":[24,17,17,2,20,8,0,0,0,0,0,0,0],"split_type":[0,0,0,0,0,0,0,0,0,0,0,0,0],"sum_hessian":[4.420944E2,3.1450006E2,1.27594315E2,2.711381E2,4.336198E1,1.1877257E2,8.821747E0,1.5709065E2,1.1404744E2,6.300526E0,3.7061455E1,9.386133E1,2.491124E1],"tree_param":{"num_deleted":"0","num_feature":"28","num_nodes":"13","size_leaf_vector":"1"}},{"base_weights":[-5.1284917E-2,5.366884E-2,-4.2878523E-1,1.732587E-1,-2.1068352E-1,-2.919009E-1,-5.7103302E-2,7.8067154E-4,2.7816778E-2,-3.2557145E-2,1.5589677E-2,-2.9298518E-2,2.1470737E-2],"categories":[],"categories_nodes":[],"categories_segments":[],"categories_sizes":[],"default_left":[0,0,0,0,0,0,0,0,0,0,0,0,0],"id":46,"left_children":[1,3,5,7,9,11,-1,-1,-1,-1,-1,-1,-1],"loss_changes":[1.8038551E1,1.1303886E1,9.024822E0,1.4795496E1,2.5948826E1,1.846795E1,0E0,0E0,0E0,0E0,0E0,0E0,0E0],"parents":[2147483647,0,0,1,1,2,2,3,3,4,4,5,5],"right_children":[2,4,6,8,10,12,-1,-1,-1,-1,-1,-1,-1],"split_conditions":[1.5E1,8.34E1,3E0,7.81E1,8.83E1,6E-1,-5.7103302E-2,7.8067154E-4,2.7816778E-2,-3.2557145E-2,1.5589677E-2,-2.9298518E-2,2.1470737E-2],"split_indices":[19,4,13,4,4,1,0,0,0,0,0,0,0],"split_type":[0,0,0,0,0,0,0,0,0,0,0,0,0],"sum_hessian":[4.5197015E2,3.5444745E2,9.752269E1,2.4466093E2,1.0978652E2,8.371178E1,1.3810911E1,1.74622E2,7.003894E1,5.9472195E1,5.031433E1,5.9766125E1,2.3945654E1],"tree_param":{"num_deleted":"0","num_feature":"28","num_nodes":"13","size_leaf_vector":"1"}},{"base_weights":[2.6202134E-3,2.9168215E-1,-1.9240327E-1,-2.4649714E-1,4.4938597E-1,-1.3316143E-1,-1.0867022E0,-2.5792852E-2,3.659786E-2,4.2663366E-2,1.1634848E-2,-1.25553785E-2,1.5024304E-2,-7.090434E-2,-1.3574029E-2],"categories":[],"categories_nodes":[],"categories_segments":[],"categories_sizes":[],"default_left":[0,0,0,0,0,0,0,0,0,0,0,0,0,0,0],"id":47,"left_children":[1,3,5,7,9,11,13,-1,-1,-1,-1,-1,-1,-1,-1],"loss_changes":[2.5408558E1,1.5608696E1,1.3903863E1,1.1615393E1,1.1951372E1,1.3096937E1,3.6808052E0,0E0,0E0,0E0,0E0,0E0,0E0,0E0,0E0],"parents":[2147483647,0,0,1,1,2,2,3,3,4,4,5,5,6,6],"right_children":[2,4,6,8,10,12,14,-1,-1,-1,-1,-1,-1,-1,-1],"split_conditions":[-9E-1,8.04E1,8.5E1,7.34E1,4.4E-1,9.54E1,8E0,-2.5792852E-2,3.659786E-2,4.2663366E-2,1.1634848E-2,-1.25553785E-2,1.5024304E-2,-7.090434E-2,-1.3574029E-2],"split_indices":[7,5,5,3,8,3,15,0,0,0,0,0,0,0,0],"split_type":[0,0,0,0,0,0,0,0,0,0,0,0,0,0,0],"sum_hessian":[4.4754584E2,1.8020985E2,2.67336E2,4.050478E1,1.3970508E2,2.5244803E2,1.4887968E1,3.239743E1,8.10735E0,4.7081993E1,9.262308E1,1.9914528E2,5.3302753E1,9.709261E0,5.178708E0],"tree_param":{"num_deleted":"0","num_feature":"28","num_nodes":"15","size_leaf_vector":"1"}},{"base_weights":[4.0732022E-2,-9.056669E-3,7.9780304E-1,-3.6360227E-2,5.4649305E-2,3.1215092E-3,5.770681E-2,-4.4192793E-3,2.6105551E-2],"categories":[],"categories_nodes":[],"categories_segments":[],"categories_sizes":[],"default_left":[0,0,0,0,0,0,0,0,0],"id":48,"left_children":[1,3,5,7,-1,-1,-1,-1,-1],"loss_changes":[1.720093E1,1.2811361E1,7.1473885E0,1.2185588E1,0E0,0E0,0E0,0E0,0E0],"parents":[2147483647,0,0,1,1,2,2,3,3],"right_children":[2,4,6,8,-1,-1,-1,-1,-1],"split_conditions":[9.66E1,2.084E2,0E0,7.6E-1,5.4649305E-2,3.1215092E-3,5.770681E-2,-4.4192793E-3,2.6105551E-2],"split_indices":[5,26,17,8,0,0,0,0,0],"split_type":[0,0,0,0,0,0,0,0,0],"sum_hessian":[4.524558E2,4.258029E2,2.665291E1,4.1701248E2,8.790403E0,9.366495E0,1.7286415E1,3.8279428E2,3.42182E1],"tree_param":{"num_deleted":"0","num_feature":"28","num_nodes":"9","size_leaf_vector":"1"}},{"base_weights":[1.1028913E-2,-3.5322246E-1,1.2705794E-1,-5.7726866E-1,1.52141E-1,8.794971E-2,5.2354958E-2,-3.8322214E-2,6.977267E-3,4.249415E-2,-8.139826E-3,-1.243556E-2,1.0601299E-2],"categories":[],"categories_nodes":[],"categories_segments":[],"categories_sizes":[],"default_left":[0,0,0,0,0,0,0,0,0,0,0,0,0],"id":49,"left_children":[1,3,5,7,9,11,-1,-1,-1,-1,-1,-1,-1],"loss_changes":[1.887709E1,1.2384121E1,1.1955145E1,1.0415638E1,7.7857046E0,1.3741594E1,0E0,0E0,0E0,0E0,0E0,0E0,0E0],"parents":[2147483647,0,0,1,1,2,2,3,3,4,4,5,5],"right_children":[2,4,6,8,10,12,-1,-1,-1,-1,-1,-1,-1],"split_conditions":[3.74E-1,8E0,2.214E2,5.925926E-1,-3.4E0,1E0,5.2354958E-2,-3.8322214E-2,6.977267E-3,4.249415E-2,-8.139826E-3,-1.243556E-2,1.0601299E-2],"split_indices":[27,15,26,10,7,22,0,0,0,0,0,0,0],"split_type":[0,0,0,0,0,0,0,0,0,0,0,0,0],"sum_hessian":[4.4409216E2,1.0633745E2,3.377547E2,7.3663956E1,3.267349E1,3.256638E2,1.2090925E1,5.8310722E1,1.5353234E1,9.467645E0,2.3205845E1,8.707826E1,2.3858553E2],"tree_param":{"num_deleted":"0","num_feature":"28","num_nodes":"13","size_leaf_vector":"1"}},{"base_weights":[-4.5873076E-2,5.2482E-1,-1.078972E-1,7.844203E-1,-4.7832828E-2,-1.5899713E-1,5.7924914E-1,2.2724977E-2,5.9014674E-2,-1.2913749E-2,8.180176E-3,-3.3465054E-2,4.774346E-2],"categories":[],"categories_nodes":[],"categories_segments":[],"categories_sizes":[],"default_left":[0,0,0,0,0,0,0,0,0,0,0,0,0],"id":50,"left_children":[1,3,5,7,-1,9,11,-1,-1,-1,-1,-1,-1],"loss_changes":[1.6023785E1,1.816676E1,1.4443863E1,4.0762386E0,0E0,1.2295785E1,1.4339585E1,0E0,0E0,0E0,0E0,0E0,0E0],"parents":[2147483647,0,0,1,1,2,2,3,3,5,5,6,6],"right_children":[2,4,6,8,-1,10,12,-1,-1,-1,-1,-1,-1],"split_conditions":[6.41E1,1.5E1,2.3E1,8E0,-4.7832828E-2,8.96E1,-2E0,2.2724977E-2,5.9014674E-2,-1.2913749E-2,8.180176E-3,-3.3465054E-2,4.774346E-2],"split_indices":[4,15,18,15,0,2,17,0,0,0,0,0,0],"split_type":[0,0,0,0,0,0,0,0,0,0,0,0,0],"sum_hessian":[4.4996915E2,4.2854446E1,4.071147E2,3.7122684E1,5.731764E0,3.8014362E2,2.6971092E1,2.2143246E1,1.4979438E1,2.911527E2,8.8990906E1,5.904775E0,2.1066317E1],"tree_param":{"num_deleted":"0","num_feature":"28","num_nodes":"13","size_leaf_vector":"1"}},{"base_weights":[7.164674E-2,-1.0036658E-2,5.9313494E-1,1.9002213E-1,-1.9234927E-1,8.4343845E-1,-2.2094354E-1,-4.5423172E-3,2.3759417E-2,-2.541393E-3,-3.0824646E-2,4.835732E-2,-0E0,3.429364E-2,-7.175725E-2],"categories":[],"categories_nodes":[],"categories_segments":[],"categories_sizes":[],"default_left":[0,0,0,0,0,0,0,0,0,0,0,0,0,0,0],"id":51,"left_children":[1,3,5,7,9,11,13,-1,-1,-1,-1,-1,-1,-1,-1],"loss_changes":[1.9504515E1,1.4491957E1,1.2972315E1,1.5258504E1,1.2377733E1,5.0387077E0,1.8806467E1,0E0,0E0,0E0,0E0,0E0,0E0,0E0,0E0],"parents":[2147483647,0,0,1,1,2,2,3,3,4,4,5,5,6,6],"right_children":[2,4,6,8,10,12,14,-1,-1,-1,-1,-1,-1,-1,-1],"split_conditions":[1.99E1,1.5166E3,1.6558E3,4.7619048E-1,1E0,7E-1,3E0,-4.5423172E-3,2.3759417E-2,-2.541393E-3,-3.0824646E-2,4.835732E-2,-0E0,3.429364E-2,-7.175725E-2],"split_indices":[6,25,24,11,14,11,19,0,0,0,0,0,0,0,0],"split_type":[0,0,0,0,0,0,0,0,0,0,0,0,0,0,0],"sum_hessian":[4.5480695E2,3.9432166E2,6.0485275E1,1.8771866E2,2.06603E2,4.631394E1,1.4171339E1,9.491026E1,9.28084E1,1.5635014E2,5.025286E1,4.0251286E1,6.062652E0,8.43904E0,5.732299E0],"tree_param":{"num_deleted":"0","num_feature":"28","num_nodes":"15","size_leaf_vector":"1"}},{"base_weights":[8.78775E-3,6.1852124E-2,-1.5014321E-2,-6.3347384E-2,6.110068E-1,1.901904E-3,-2.6763076E-2,-3.3037465E-2,4.9621664E-2],"categories":[],"categories_nodes":[],"categories_segments":[],"categories_sizes":[],"default_left":[0,0,0,0,0,0,0,0,0],"id":52,"left_children":[1,-1,3,5,7,-1,-1,-1,-1],"loss_changes":[1.29446535E1,0E0,1.3036069E1,1.9283634E1,1.598848E1,0E0,0E0,0E0,0E0],"parents":[2147483647,0,0,2,2,3,3,4,4],"right_children":[2,-1,4,6,8,-1,-1,-1,-1],"split_conditions":[-3.3E1,6.1852124E-2,9.94E1,9.02E1,6.81E1,1.901904E-3,-2.6763076E-2,-3.3037465E-2,4.9621664E-2],"split_indices":[17,0,3,3,5,0,0,0,0],"split_type":[0,0,0,0,0,0,0,0,0],"sum_hessian":[4.3614627E2,6.917677E0,4.2922858E2,3.9986432E2,2.9364273E1,3.3011087E2,6.9753426E1,6.4610696E0,2.2903204E1],"tree_param":{"num_deleted":"0","num_feature":"28","num_nodes":"9","size_leaf_vector":"1"}},{"base_weights":[3.9441563E-4,-3.467203E-2,4.9728733E-2,-7.664246E-1,5.6560948E-3,-1.3184374E-3,-6.7568965E-2,1.9426575E-2,-5.8610043E-3],"categories":[],"categories_nodes":[],"categories_segments":[],"categories_sizes":[],"default_left":[0,0,0,0,0,0,0,0,0],"id":53,"left_children":[1,3,-1,5,7,-1,-1,-1,-1],"loss_changes":[1.5805044E1,1.2924513E1,0E0,9.709489E0,1.9563116E1,0E0,0E0,0E0,0E0],"parents":[2147483647,0,0,1,1,3,3,4,4],"right_children":[2,4,-1,6,8,-1,-1,-1,-1],"split_conditions":[2.187E2,-7E0,4.9728733E-2,-1.896E2,-1E0,-1.3184374E-3,-6.7568965E-2,1.9426575E-2,-5.8610043E-3],"split_indices":[26,14,0,26,12,0,0,0,0],"split_type":[0,0,0,0,0,0,0,0,0],"sum_hessian":[4.4761832E2,4.3366916E2,1.3949155E1,2.1370718E1,4.1229846E2,1.0202098E1,1.1168621E1,9.958086E1,3.127176E2],"tree_param":{"num_deleted":"0","num_feature":"28","num_nodes":"9","size_leaf_vector":"1"}},{"base_weights":[4.652324E-3,-2.8782725E-1,1.2627053E-1,-5.534418E-1,5.5025656E-2,3.9707117E-2,7.4127287E-1,-8.6834645E-3,-6.3117415E-2,2.4529265E-2,-3.2307707E-2,-6.140964E-4,3.8204025E-2,4.9125206E-2,-2.1071E-2],"categories":[],"categories_nodes":[],"categories_segments":[],"categories_sizes":[],"default_left":[0,0,0,0,0,0,0,0,0,0,0,0,0,0,0],"id":54,"left_children":[1,3,5,7,9,11,13,-1,-1,-1,-1,-1,-1,-1,-1],"loss_changes":[1.5887536E1,1.2032215E1,1.6700027E1,1.9492474E1,1.8301363E1,1.058604E1,1.1548878E1,0E0,0E0,0E0,0E0,0E0,0E0,0E0,0E0],"parents":[2147483647,0,0,1,1,2,2,3,3,4,4,5,5,6,6],"right_children":[2,4,6,8,10,12,14,-1,-1,-1,-1,-1,-1,-1,-1],"split_conditions":[7.33E1,4.7E0,5E0,-4.41E1,1.6056E3,6.3E1,8.36E1,-8.6834645E-3,-6.3117415E-2,2.4529265E-2,-3.2307707E-2,-6.140964E-4,3.8204025E-2,4.9125206E-2,-2.1071E-2],"split_indices":[5,6,14,26,24,15,4,0,0,0,0,0,0,0,0],"split_type":[0,0,0,0,0,0,0,0,0,0,0,0,0,0,0],"sum_hessian":[4.440665E2,1.2957631E2,3.144902E2,7.26575E1,5.69188E1,2.7722885E2,3.7261345E1,4.861969E1,2.4037811E1,3.5475327E1,2.1443474E1,2.5991125E2,1.731759E1,3.112261E1,6.1387353E0],"tree_param":{"num_deleted":"0","num_feature":"28","num_nodes":"15","size_leaf_vector":"1"}},{"base_weights":[-5.8839593E-2,-1.9701973E-1,3.002274E-1,-1.0104979E-1,-9.7550595E-1,4.160274E-1,-5.236968E-2,-1.2414325E-2,1.619422E-2,-7.638034E-2,-2.7137144E-2,4.2475767E-2,8.310943E-3],"categories":[],"categories_nodes":[],"categories_segments":[],"categories_sizes":[],"default_left":[0,0,0,0,0,0,0,0,0,0,0,0,0],"id":55,"left_children":[1,3,5,7,9,11,-1,-1,-1,-1,-1,-1,-1],"loss_changes":[2.1964275E1,2.362471E1,1.9780846E1,1.8028316E1,6.862011E0,1.2073078E1,0E0,0E0,0E0,0E0,0E0,0E0,0E0],"parents":[2147483647,0,0,1,1,2,2,3,3,4,4,5,5],"right_children":[2,4,6,8,10,12,-1,-1,-1,-1,-1,-1,-1],"split_conditions":[1.567E3,1.5453E3,8.369565E-1,5.8064514E-1,5E0,-1.1E0,-5.236968E-2,-1.2414325E-2,1.619422E-2,-7.638034E-2,-2.7137144E-2,4.2475767E-2,8.310943E-3],"split_indices":[24,24,10,11,6,7,0,0,0,0,0,0,0],"split_type":[0,0,0,0,0,0,0,0,0,0,0,0,0],"sum_hessian":[4.3960574E2,3.1813354E2,1.2147221E2,2.8484204E2,3.3291492E1,1.1288337E2,8.58884E0,2.1218152E2,7.2660515E1,1.2859708E1,2.0431786E1,3.9806538E1,7.3076836E1],"tree_param":{"num_deleted":"0","num_feature":"28","num_nodes":"13","size_leaf_vector":"1"}},{"base_weights":[-1.2186156E-2,9.076955E-1,-4.869655E-2,5.2908063E-2,2.6436908E-2,-7.707049E-2,5.845931E-2,-7.4146213E-3,1.8086981E-2],"categories":[],"categories_nodes":[],"categories_segments":[],"categories_sizes":[],"default_left":[0,0,0,0,0,0,0,0,0],"id":56,"left_children":[1,3,5,-1,-1,7,-1,-1,-1],"loss_changes":[1.5449756E1,3.0784607E-3,1.5387688E1,0E0,0E0,1.3682601E1,0E0,0E0,0E0],"parents":[2147483647,0,0,1,1,2,2,5,5],"right_children":[2,4,6,-1,-1,8,-1,-1,-1],"split_conditions":[2E-1,6E0,1.056E2,5.2908063E-2,2.6436908E-2,7.2727275E-1,5.845931E-2,-7.4146213E-3,1.8086981E-2],"split_indices":[1,14,3,0,0,8,0,0,0],"split_type":[0,0,0,0,0,0,0,0,0],"sum_hessian":[4.5909973E2,1.6055273E1,4.4304446E2,9.378996E0,6.6762767E0,4.3441083E2,8.633612E0,3.747993E2,5.961156E1],"tree_param":{"num_deleted":"0","num_feature":"28","num_nodes":"9","size_leaf_vector":"1"}},{"base_weights":[-5.778547E-2,-1.3942859E-1,4.8878318E-1,-1.8898068E-1,5.469902E-1,-2.6327986E-1,8.799596E-1,-1.1758006E-2,2.425523E-2,-1.729139E-2,5.1584896E-2,2.9252926E-2,-3.7241396E-2,5.3720243E-2,-1.1329426E-2],"categories":[],"categories_nodes":[],"categories_segments":[],"categories_sizes":[],"default_left":[0,0,0,0,0,0,0,0,0,0,0,0,0,0,0],"id":57,"left_children":[1,3,5,7,9,11,13,-1,-1,-1,-1,-1,-1,-1,-1],"loss_changes":[1.944326E1,1.3013952E1,1.7061493E1,1.1191619E1,1.1757631E1,9.017654E0,8.554941E0,0E0,0E0,0E0,0E0,0E0,0E0,0E0,0E0],"parents":[2147483647,0,0,1,1,2,2,3,3,4,4,5,5,6,6],"right_children":[2,4,6,8,10,12,14,-1,-1,-1,-1,-1,-1,-1,-1],"split_conditions":[1.99E1,9.94E1,7.52E1,9.66E1,8.18E1,9.12E1,1.665E3,-1.1758006E-2,2.425523E-2,-1.729139E-2,5.1584896E-2,2.9252926E-2,-3.7241396E-2,5.3720243E-2,-1.1329426E-2],"split_indices":[6,3,5,5,2,2,24,0,0,0,0,0,0,0,0],"split_type":[0,0,0,0,0,0,0,0,0,0,0,0,0,0,0],"sum_hessian":[4.3270938E2,3.7760532E2,5.5104076E1,3.5333127E2,2.4274033E1,1.8935019E1,3.616906E1,3.3173053E2,2.1600742E1,8.619897E0,1.5654136E1,6.66437E0,1.2270648E1,3.0877192E1,5.291869E0],"tree_param":{"num_deleted":"0","num_feature":"28","num_nodes":"15","size_leaf_vector":"1"}},{"base_weights":[-5.081816E-2,4.344527E-2,-3.407353E-1,5.981679E-1,-1.804391E-2,-5.544835E-1,6.5049064E-1,6.490679E-2,4.696599E-3,-6.433128E-3,1.6460383E-2,-4.768932E-2,-2.1250832E-3,5.5419672E-2,-3.0728958E-3],"categories":[],"categories_nodes":[],"categories_segments":[],"categories_sizes":[],"default_left":[0,0,0,0,0,0,0,0,0,0,0,0,0,0,0],"id":58,"left_children":[1,3,5,7,9,11,13,-1,-1,-1,-1,-1,-1,-1,-1],"loss_changes":[1.2350573E1,1.1694555E1,2.4017511E1,1.1749123E1,1.1873664E1,1.8663853E1,6.815195E0,0E0,0E0,0E0,0E0,0E0,0E0,0E0,0E0],"parents":[2147483647,0,0,1,1,2,2,3,3,4,4,5,5,6,6],"right_children":[2,4,6,8,10,12,14,-1,-1,-1,-1,-1,-1,-1,-1],"split_conditions":[8.98E1,2.631579E-1,6.1904764E-1,0E0,8.83E1,9.67E1,3.846154E-1,6.490679E-2,4.696599E-3,-6.433128E-3,1.6460383E-2,-4.768932E-2,-2.1250832E-3,5.5419672E-2,-3.0728958E-3],"split_indices":[3,8,8,14,4,3,11,0,0,0,0,0,0,0,0],"split_type":[0,0,0,0,0,0,0,0,0,0,0,0,0,0,0],"sum_hessian":[4.485284E2,3.3917847E2,1.0934994E2,3.2701073E1,3.0647742E2,9.0579216E1,1.8770727E1,1.2620959E1,2.0080114E1,2.3336885E2,7.310856E1,5.005264E1,4.0526573E1,1.100065E1,7.7700768E0],"tree_param":{"num_deleted":"0","num_feature":"28","num_nodes":"15","size_leaf_vector":"1"}},{"base_weights":[2.6243217E-2,9.3774855E-2,-3.6365736E-1,8.4576833E-1,4.2327955E-2,-1.2827673E0,-6.655121E-2,3.5856904E-3,5.6687135E-2,-3.812083E-2,5.5218283E-3,-8.431225E-2,-1.768697E-2,4.4894986E-2,-1.7900927E-2],"categories":[],"categories_nodes":[],"categories_segments":[],"categories_sizes":[],"default_left":[0,0,0,0,0,0,0,0,0,0,0,0,0,0,0],"id":59,"left_children":[1,3,5,7,9,11,13,-1,-1,-1,-1,-1,-1,-1,-1],"loss_changes":[1.2238115E1,1.5208703E1,1.846185E1,5.3758373E0,2.0510344E1,5.1186485E0,1.5462905E1,0E0,0E0,0E0,0E0,0E0,0E0,0E0,0E0],"parents":[2147483647,0,0,1,1,2,2,3,3,4,4,5,5,6,6],"right_children":[2,4,6,8,10,12,14,-1,-1,-1,-1,-1,-1,-1,-1],"split_conditions":[6.813187E-1,-2.67E1,7.1428573E-1,6.03E1,-3.05E1,2E0,-4E0,3.5856904E-3,5.6687135E-2,-3.812083E-2,5.5218283E-3,-8.431225E-2,-1.768697E-2,4.4894986E-2,-1.7900927E-2],"split_indices":[10,7,10,3,6,14,21,0,0,0,0,0,0,0,0],"split_type":[0,0,0,0,0,0,0,0,0,0,0,0,0,0,0],"sum_hessian":[4.6236865E2,3.9529788E2,6.707076E1,2.370477E1,3.7159314E2,1.5086663E1,5.1984097E1,7.0298443E0,1.6674925E1,2.7687624E1,3.439055E2,9.591033E0,5.4956303E0,1.1260302E1,4.0723793E1],"tree_param":{"num_deleted":"0","num_feature":"28","num_nodes":"15","size_leaf_vector":"1"}},{"base_weights":[1.5864365E-2,-4.015899E-1,8.052401E-2,-7.048883E-1,3.9179617E-1,1.0969494E-2,4.8245743E-1,5.8618677E-4,-4.7115467E-2,-5.02741E-2,6.5877065E-2,2.823619E-3,-9.3533255E-2,3.736992E-2,-4.221953E-3],"categories":[],"categories_nodes":[],"categories_segments":[],"categories_sizes":[],"default_left":[0,0,0,0,0,0,0,0,0,0,0,0,0,0,0],"id":60,"left_children":[1,3,5,7,9,11,13,-1,-1,-1,-1,-1,-1,-1,-1],"loss_changes":[1.1812761E1,1.4560004E1,1.05624485E1,7.4359474E0,2.4130703E1,2.7852905E1,8.540559E0,0E0,0E0,0E0,0E0,0E0,0E0,0E0,0E0],"parents":[2147483647,0,0,1,1,2,2,3,3,4,4,5,5,6,6],"right_children":[2,4,6,8,10,12,14,-1,-1,-1,-1,-1,-1,-1,-1],"split_conditions":[-8E0,8.07E1,1.99E1,1.2E1,1.4E1,9.94E1,9E-1,5.8618677E-4,-4.7115467E-2,-5.02741E-2,6.5877065E-2,2.823619E-3,-9.3533255E-2,3.736992E-2,-4.221953E-3],"split_indices":[21,2,6,9,19,2,0,0,0,0,0,0,0,0,0],"split_type":[0,0,0,0,0,0,0,0,0,0,0,0,0,0,0],"sum_hessian":[4.355246E2,5.715552E1,3.7836908E2,4.1560852E1,1.5594668E1,3.240773E2,5.4291786E1,1.0592888E1,3.0967962E1,6.1200776E0,9.474591E0,3.178978E2,6.179481E0,3.6794533E1,1.7497255E1],"tree_param":{"num_deleted":"0","num_feature":"28","num_nodes":"15","size_leaf_vector":"1"}},{"base_weights":[-7.368618E-2,-1.4740245E-1,3.2386255E-1,-4.0665558E-1,-2.3884425E-2,-0E0,5.7176422E-2,-6.0856673E-3,-4.5313515E-2,2.038257E-2,-1.0339986E-2,-1.1889519E-2,5.986724E-2],"categories":[],"categories_nodes":[],"categories_segments":[],"categories_sizes":[],"default_left":[0,0,0,0,0,0,0,0,0,0,0,0,0],"id":61,"left_children":[1,3,5,7,9,11,-1,-1,-1,-1,-1,-1,-1],"loss_changes":[1.3363898E1,1.2250971E1,1.8867912E1,1.7339058E1,2.0802492E1,1.5467765E1,0E0,0E0,0E0,0E0,0E0,0E0,0E0],"parents":[2147483647,0,0,1,1,2,2,3,3,4,4,5,5],"right_children":[2,4,6,8,10,12,-1,-1,-1,-1,-1,-1,-1],"split_conditions":[3E0,7.72E1,8.25E1,8.34E1,8.22E1,1.6212E3,5.7176422E-2,-6.0856673E-3,-4.5313515E-2,2.038257E-2,-1.0339986E-2,-1.1889519E-2,5.986724E-2],"split_indices":[12,4,5,3,4,25,0,0,0,0,0,0,0],"split_type":[0,0,0,0,0,0,0,0,0,0,0,0,0],"sum_hessian":[4.5267395E2,3.828741E2,6.979983E1,1.2218045E2,2.6069366E2,5.1152096E1,1.8647736E1,7.912127E1,4.3059177E1,7.689424E1,1.8379942E2,4.3643406E1,7.508687E0],"tree_param":{"num_deleted":"0","num_feature":"28","num_nodes":"13","size_leaf_vector":"1"}},{"base_weights":[4.3530773E-2,-7.137905E-1,9.3809664E-2,-9.565708E-1,3.6464974E-3,6.677148E-2,5.5259198E-2,-2.2777056E-2,-6.560772E-2,5.781987E-3,-2.1412436E-2],"categories":[],"categories_nodes":[],"categories_segments":[],"categories_sizes":[],"default_left":[0,0,0,0,0,0,0,0,0,0,0],"id":62,"left_children":[1,3,5,7,-1,9,-1,-1,-1,-1,-1],"loss_changes":[1.5913447E1,5.1602364E0,1.0502824E1,2.5034714E0,0E0,9.329484E0,0E0,0E0,0E0,0E0,0E0],"parents":[2147483647,0,0,1,1,2,2,3,3,5,5],"right_children":[2,4,6,8,-1,10,-1,-1,-1,-1,-1],"split_conditions":[3.617021E-1,6.4285713E-1,1.041E2,8E0,3.6464974E-3,1.9E1,5.5259198E-2,-2.2777056E-2,-6.560772E-2,5.781987E-3,-2.1412436E-2],"split_indices":[10,11,3,15,0,9,0,0,0,0,0],"split_type":[0,0,0,0,0,0,0,0,0,0,0],"sum_hessian":[4.154155E2,2.4506388E1,3.909091E2,1.8576868E1,5.9295197E0,3.823843E2,8.524797E0,9.248416E0,9.328453E0,3.4925732E2,3.3126995E1],"tree_param":{"num_deleted":"0","num_feature":"28","num_nodes":"11","size_leaf_vector":"1"}},{"base_weights":[-3.9026596E-2,-1.0460838E0,-5.1883394E-3,-5.336993E-3,-8.509985E-2,-7.199448E-2,5.0248903E-1,-1.5935805E-3,-4.9215436E-2,-1.9135494E-2,3.6293592E-2],"categories":[],"categories_nodes":[],"categories_segments":[],"categories_sizes":[],"default_left":[0,0,0,0,0,0,0,0,0,0,0],"id":63,"left_children":[1,3,5,-1,-1,7,9,-1,-1,-1,-1],"loss_changes":[1.4958265E1,8.341464E0,1.4578245E1,0E0,0E0,1.3799282E1,1.03301115E1,0E0,0E0,0E0,0E0],"parents":[2147483647,0,0,1,1,2,2,5,5,6,6],"right_children":[2,4,6,-1,-1,8,10,-1,-1,-1,-1],"split_conditions":[-2.9E1,8.08E1,1.99E1,-5.336993E-3,-8.509985E-2,1.69E1,7E0,-1.5935805E-3,-4.9215436E-2,-1.9135494E-2,3.6293592E-2],"split_indices":[16,5,6,0,0,6,18,0,0,0,0],"split_type":[0,0,0,0,0,0,0,0,0,0,0],"sum_hessian":[4.4077798E2,1.2774374E1,4.280036E2,6.032169E0,6.7422056E0,3.7954312E2,4.846048E1,3.6514627E2,1.4396837E1,9.459157E0,3.9001324E1],"tree_param":{"num_deleted":"0","num_feature":"28","num_nodes":"11","size_leaf_vector":"1"}},{"base_weights":[3.683599E-2,8.1630975E-2,-6.1810774E-1,-9.2161834E-2,3.14787E-1,4.613054E-1,-1.4630709E0,-1.0835363E-2,2.7405862E-2,1.0374391E-2,4.6339422E-2,4.0884893E-2,-1.102398E-3,-0E0,-1.1099789E-1],"categories":[],"categories_nodes":[],"categories_segments":[],"categories_sizes":[],"default_left":[0,0,0,0,0,0,0,0,0,0,0,0,0,0,0],"id":64,"left_children":[1,3,5,7,9,11,13,-1,-1,-1,-1,-1,-1,-1,-1],"loss_changes":[1.2437396E1,1.6175163E1,2.5850225E1,1.8381662E1,1.0785709E1,2.3456228E0,1.7133717E1,0E0,0E0,0E0,0E0,0E0,0E0,0E0,0E0],"parents":[2147483647,0,0,1,1,2,2,3,3,4,4,5,5,6,6],"right_children":[2,4,6,8,10,12,14,-1,-1,-1,-1,-1,-1,-1,-1],"split_conditions":[8.313253E-1,8.05E1,7.53E1,2E0,5E0,1E0,-7.5E0,-1.0835363E-2,2.7405862E-2,1.0374391E-2,4.6339422E-2,4.0884893E-2,-1.102398E-3,-0E0,-1.1099789E-1],"split_indices":[10,5,4,17,14,17,26,0,0,0,0,0,0,0,0],"split_type":[0,0,0,0,0,0,0,0,0,0,0,0,0,0,0],"sum_hessian":[4.2168073E2,3.9605798E2,2.5622723E1,2.2719022E2,1.6886777E2,1.1497618E1,1.4125106E1,1.9115562E2,3.60346E1,1.4552547E2,2.3342308E1,6.139828E0,5.357789E0,5.36166E0,8.763446E0],"tree_param":{"num_deleted":"0","num_feature":"28","num_nodes":"15","size_leaf_vector":"1"}},{"base_weights":[8.116876E-2,1.9086371E-1,-2.677999E-1,1.1199522E-1,9.004371E-1,-1.5392609E-1,-7.6126955E-2,6.6412217E-4,2.9418582E-2,-1.6621616E-2,6.054589E-2,-3.1285036E-2,5.8779186E-3],"categories":[],"categories_nodes":[],"categories_segments":[],"categories_sizes":[],"default_left":[0,0,0,0,0,0,0,0,0,0,0,0,0],"id":65,"left_children":[1,3,5,7,9,11,-1,-1,-1,-1,-1,-1,-1],"loss_changes":[1.715093E1,1.880888E1,1.4787596E1,1.4429309E1,1.3603415E1,1.2963605E1,0E0,0E0,0E0,0E0,0E0,0E0,0E0],"parents":[2147483647,0,0,1,1,2,2,3,3,4,4,5,5],"right_children":[2,4,6,8,10,12,-1,-1,-1,-1,-1,-1,-1],"split_conditions":[9.03E1,3.6E1,8.4415585E-1,8.55E1,1.2E1,9.41E1,-7.6126955E-2,6.6412217E-4,2.9418582E-2,-1.6621616E-2,6.054589E-2,-3.1285036E-2,5.8779186E-3],"split_indices":[3,16,10,3,9,3,0,0,0,0,0,0,0],"split_type":[0,0,0,0,0,0,0,0,0,0,0,0,0],"sum_hessian":[4.447359E2,3.3910703E2,1.0562888E2,3.0687573E2,3.22313E1,9.845712E1,7.1717615E0,2.5565225E2,5.122347E1,6.397946E0,2.5833355E1,3.538235E1,6.3074768E1],"tree_param":{"num_deleted":"0","num_feature":"28","num_nodes":"13","size_leaf_vector":"1"}},{"base_weights":[-6.378274E-3,-1.01943046E-1,3.541375E-1,-5.9353087E-2,-1.1977025E0,-2.693252E-1,6.679805E-1,3.3724923E-2,-5.5408417E-3,-9.3987934E-2,-9.304294E-3,3.7896052E-2,-6.1903775E-2,4.0527184E-2,-2.5136515E-2],"categories":[],"categories_nodes":[],"categories_segments":[],"categories_sizes":[],"default_left":[0,0,0,0,0,0,0,0,0,0,0,0,0,0,0],"id":66,"left_children":[1,3,5,7,9,11,13,-1,-1,-1,-1,-1,-1,-1,-1],"loss_changes":[1.4854617E1,1.5706673E1,1.7975403E1,1.2534856E1,7.970854E0,3.2496456E1,1.0754654E1,0E0,0E0,0E0,0E0,0E0,0E0,0E0,0E0],"parents":[2147483647,0,0,1,1,2,2,3,3,4,4,5,5,6,6],"right_children":[2,4,6,8,10,12,14,-1,-1,-1,-1,-1,-1,-1,-1],"split_conditions":[8.96E1,8.8E1,7E0,-2.6E1,8.1E1,4.7368422E-1,1.889E2,3.3724923E-2,-5.5408417E-3,-9.3987934E-2,-9.304294E-3,3.7896052E-2,-6.1903775E-2,4.0527184E-2,-2.5136515E-2],"split_indices":[2,2,18,7,4,11,26,0,0,0,0,0,0,0,0],"split_type":[0,0,0,0,0,0,0,0,0,0,0,0,0,0,0],"sum_hessian":[4.288211E2,3.400378E2,8.8783295E1,3.2892563E2,1.1112166E1,2.9692331E1,5.9090958E1,2.023798E1,3.0868765E2,5.8092923E0,5.3028736E0,1.4519413E1,1.5172918E1,5.316383E1,5.927129E0],"tree_param":{"num_deleted":"0","num_feature":"28","num_nodes":"15","size_leaf_vector":"1"}},{"base_weights":[4.0547453E-2,5.0318606E-2,1.8141813E-4,-1.5767537E-1,2.2240959E-1,-2.3887018E-2,3.6853135E-3,4.0219765E-2,3.5941799E-3],"categories":[],"categories_nodes":[],"categories_segments":[],"categories_sizes":[],"default_left":[0,0,0,0,0,0,0,0,0],"id":67,"left_children":[1,-1,3,5,7,-1,-1,-1,-1],"loss_changes":[1.664743E1,0E0,1.4580854E1,1.8063068E1,1.4964544E1,0E0,0E0,0E0,0E0],"parents":[2147483647,0,0,2,2,3,3,4,4],"right_children":[2,-1,4,6,8,-1,-1,-1,-1],"split_conditions":[2E-1,5.0318606E-2,4.9E0,4.814815E-1,9.1E0,-2.3887018E-2,3.6853135E-3,4.0219765E-2,3.5941799E-3],"split_indices":[1,0,6,11,6,0,0,0,0],"split_type":[0,0,0,0,0,0,0,0,0],"sum_hessian":[4.2809372E2,1.5634647E1,4.1245908E2,2.4114833E2,1.7131075E2,1.0069471E2,1.4045361E2,3.3727676E1,1.3758307E2],"tree_param":{"num_deleted":"0","num_feature":"28","num_nodes":"9","size_leaf_vector":"1"}},{"base_weights":[-6.836245E-2,-1.753787E-1,2.4846148E-1,3.232472E-1,-2.902267E-1,6.776504E-1,-1.0972055E-1,-4.4767063E-2,2.8943246E-2,-2.913086E-2,-7.868623E-3,6.0692556E-2,1.25017045E-2,-5.1096845E-2,1.7100867E-2],"categories":[],"categories_nodes":[],"categories_segments":[],"categories_sizes":[],"default_left":[0,0,0,0,0,0,0,0,0,0,0,0,0,0,0],"id":68,"left_children":[1,3,5,7,9,11,13,-1,-1,-1,-1,-1,-1,-1,-1],"loss_changes":[1.4829601E1,1.8851013E1,1.7138031E1,1.997216E1,1.0143045E1,1.0989456E1,2.586758E1,0E0,0E0,0E0,0E0,0E0,0E0,0E0,0E0],"parents":[2147483647,0,0,1,1,2,2,3,3,4,4,5,5,6,6],"right_children":[2,4,6,8,10,12,14,-1,-1,-1,-1,-1,-1,-1,-1],"split_conditions":[8.76E1,3.125E-1,4.822695E-1,-1.74E1,1E0,9E0,7E0,-4.4767063E-2,2.8943246E-2,-2.913086E-2,-7.868623E-3,6.0692556E-2,1.25017045E-2,-5.1096845E-2,1.7100867E-2],"split_indices":[2,8,11,6,22,20,18,0,0,0,0,0,0,0,0],"split_type":[0,0,0,0,0,0,0,0,0,0,0,0,0,0,0],"sum_hessian":[4.3417065E2,3.252826E2,1.0888808E2,6.0223362E1,2.6505923E2,4.905255E1,5.983553E1,9.723589E0,5.049977E1,8.0987724E1,1.840715E2,2.0435741E1,2.8616808E1,1.9263605E1,4.0571926E1],"tree_param":{"num_deleted":"0","num_feature":"28","num_nodes":"15","size_leaf_vector":"1"}},{"base_weights":[4.7231257E-2,1.0254286E-1,-4.381475E-1,-8.594748E-3,6.258795E-1,-8.045833E-1,2.0478377E-1,5.7483604E-3,-2.1366261E-2,-6.5444456E-3,4.271273E-2,-2.7131862E-3,-5.5649858E-2,3.6045387E-2,-3.0127252E-2],"categories":[],"categories_nodes":[],"categories_segments":[],"categories_sizes":[],"default_left":[0,0,0,0,0,0,0,0,0,0,0,0,0,0,0],"id":69,"left_children":[1,3,5,7,9,11,13,-1,-1,-1,-1,-1,-1,-1,-1],"loss_changes":[1.1873532E1,2.3177227E1,1.0959118E1,1.7128252E1,1.2298105E1,6.550476E0,7.959796E0,0E0,0E0,0E0,0E0,0E0,0E0,0E0,0E0],"parents":[2147483647,0,0,1,1,2,2,3,3,4,4,5,5,6,6],"right_children":[2,4,6,8,10,12,14,-1,-1,-1,-1,-1,-1,-1,-1],"split_conditions":[1.7E1,8.83E1,1.3E1,8.3E1,4.3571427E-1,8.47E1,1.068E2,5.7483604E-3,-2.1366261E-2,-6.5444456E-3,4.271273E-2,-2.7131862E-3,-5.5649858E-2,3.6045387E-2,-3.0127252E-2],"split_indices":[19,4,20,4,10,4,4,0,0,0,0,0,0,0,0],"split_type":[0,0,0,0,0,0,0,0,0,0,0,0,0,0,0],"sum_hessian":[4.395051E2,3.957916E2,4.3713524E1,3.2752213E2,6.826946E1,2.7702818E1,1.6010706E1,2.5355165E2,7.3970474E1,1.5873095E1,5.2396374E1,8.6782465E0,1.9024572E1,9.940314E0,6.0703926E0],"tree_param":{"num_deleted":"0","num_feature":"28","num_nodes":"15","size_leaf_vector":"1"}},{"base_weights":[2.1483047E-2,-7.474402E-1,7.661512E-2,4.579959E-2,-6.043301E-2,-5.66653E-1,1.16572544E-1,2.4774773E-2,-1.8989777E-2,1.0771108E-2,-6.328652E-2,7.811194E-3,-3.0147975E-2],"categories":[],"categories_nodes":[],"categories_segments":[],"categories_sizes":[],"default_left":[0,0,0,0,0,0,0,0,0,0,0,0,0],"id":70,"left_children":[1,3,5,7,-1,9,11,-1,-1,-1,-1,-1,-1],"loss_changes":[1.8447044E1,1.0846321E1,1.0518041E1,2.6029663E0,0E0,1.3591021E1,1.1071891E1,0E0,0E0,0E0,0E0,0E0,0E0],"parents":[2147483647,0,0,1,1,2,2,3,3,5,5,6,6],"right_children":[2,4,6,8,-1,10,12,-1,-1,-1,-1,-1,-1],"split_conditions":[1.3459E3,-6E0,3.617021E-1,1.5412E3,-6.043301E-2,1.5004E3,8.4210527E-1,2.4774773E-2,-1.8989777E-2,1.0771108E-2,-6.328652E-2,7.811194E-3,-3.0147975E-2],"split_indices":[24,21,10,25,0,25,10,0,0,0,0,0,0],"split_type":[0,0,0,0,0,0,0,0,0,0,0,0,0],"sum_hessian":[4.3320667E2,2.7601446E1,4.0560522E2,1.0565081E1,1.7036364E1,2.2418505E1,3.831867E2,5.1315465E0,5.4335346E0,1.1003427E1,1.1415079E1,3.64418E2,1.8768724E1],"tree_param":{"num_deleted":"0","num_feature":"28","num_nodes":"13","size_leaf_vector":"1"}},{"base_weights":[-2.969135E-2,7.5667995E-1,-7.6862365E-2,4.941134E-2,4.4852835E-3,-4.988242E-1,3.2666791E-3,-3.4022618E-2,3.355152E-2,1.4838146E-2,-5.2858186E-3],"categories":[],"categories_nodes":[],"categories_segments":[],"categories_sizes":[],"default_left":[0,0,0,0,0,0,0,0,0,0,0],"id":71,"left_children":[1,3,5,-1,-1,7,9,-1,-1,-1,-1],"loss_changes":[1.6019196E1,3.531805E0,1.3860834E1,0E0,0E0,1.457918E1,1.10860405E1,0E0,0E0,0E0,0E0],"parents":[2147483647,0,0,1,1,2,2,5,5,6,6],"right_children":[2,4,6,-1,-1,8,10,-1,-1,-1,-1],"split_conditions":[-3E0,-1.61E1,1.4374E3,4.941134E-2,4.4852835E-3,2E0,-1E0,-3.4022618E-2,3.355152E-2,1.4838146E-2,-5.2858186E-3],"split_indices":[13,7,25,0,0,12,12,0,0,0,0],"split_type":[0,0,0,0,0,0,0,0,0,0,0],"sum_hessian":[4.2983572E2,2.2928078E1,4.0690765E2,1.6371967E1,6.55611E0,6.388699E1,3.4302066E2,5.591828E1,7.968709E0,9.243151E1,2.5058914E2],"tree_param":{"num_deleted":"0","num_feature":"28","num_nodes":"11","size_leaf_vector":"1"}},{"base_weights":[3.385612E-2,-1.1620006E-1,2.5254592E-1,-6.0461503E-2,-1.0311333E0,3.6686748E-1,-3.7541354E-1,-5.4384973E-3,5.186091E-2,-1.9914135E-2,-6.4624496E-2,1.0317683E-2,4.4033043E-2,-4.669306E-2,2.9193534E-2],"categories":[],"categories_nodes":[],"categories_segments":[],"categories_sizes":[],"default_left":[0,0,0,0,0,0,0,0,0,0,0,0,0,0,0],"id":72,"left_children":[1,3,5,7,9,11,13,-1,-1,-1,-1,-1,-1,-1,-1],"loss_changes":[1.4357563E1,1.3015332E1,1.2989395E1,1.3121314E1,1.4879866E0,1.2116327E1,1.5870003E1,0E0,0E0,0E0,0E0,0E0,0E0,0E0,0E0],"parents":[2147483647,0,0,1,1,2,2,3,3,4,4,5,5,6,6],"right_children":[2,4,6,8,10,12,14,-1,-1,-1,-1,-1,-1,-1,-1],"split_conditions":[8.08E1,7.98E1,9.06E1,1.041E2,1.5032E3,1.5102E3,1.11E1,-5.4384973E-3,5.186091E-2,-1.9914135E-2,-6.4624496E-2,1.0317683E-2,4.4033043E-2,-4.669306E-2,2.9193534E-2],"split_indices":[5,5,3,3,25,25,7,0,0,0,0,0,0,0,0],"split_type":[0,0,0,0,0,0,0,0,0,0,0,0,0,0,0],"sum_hessian":[4.3426352E2,2.576916E2,1.7657191E2,2.4450458E2,1.31870165E1,1.5003973E2,2.6532185E1,2.3557928E2,8.925284E0,5.072619E0,8.114397E0,1.16074165E2,3.3965576E1,1.6860712E1,9.671473E0],"tree_param":{"num_deleted":"0","num_feature":"28","num_nodes":"15","size_leaf_vector":"1"}},{"base_weights":[1.3426307E-2,4.498917E-2,-9.670972E-1,-1.5053907E-2,8.296552E-1,-1.6203348E-2,-6.553726E-2,1.9303228E-3,-4.9094763E-2,5.1810067E-2,-6.5160724E-3],"categories":[],"categories_nodes":[],"categories_segments":[],"categories_sizes":[],"default_left":[0,0,0,0,0,0,0,0,0,0,0],"id":73,"left_children":[1,3,5,7,9,-1,-1,-1,-1,-1,-1],"loss_changes":[1.3602185E1,2.0273579E1,2.2271185E0,2.0857105E1,6.3567467E0,0E0,0E0,0E0,0E0,0E0,0E0],"parents":[2147483647,0,0,1,1,2,2,3,3,4,4],"right_children":[2,4,6,8,10,-1,-1,-1,-1,-1,-1],"split_conditions":[1E0,7.297297E-1,7.93E1,6.813187E-1,7.52E-1,-1.6203348E-2,-6.553726E-2,1.9303228E-3,-4.9094763E-2,5.1810067E-2,-6.5160724E-3],"split_indices":[10,10,5,10,27,0,0,0,0,0,0],"split_type":[0,0,0,0,0,0,0,0,0,0,0],"sum_hessian":[4.3888632E2,4.2668457E2,1.2201732E1,3.9760352E2,2.9081062E1,5.366159E0,6.835573E0,3.7796298E2,1.9640532E1,2.3919636E1,5.1614256E0],"tree_param":{"num_deleted":"0","num_feature":"28","num_nodes":"11","size_leaf_vector":"1"}},{"base_weights":[-2.7657906E-2,6.1196417E-2,-4.96565E-2,-8.439204E-3,-9.02451E-1,-2.6444609E-3,2.8624056E-2,9.073268E-3,-7.340487E-2],"categories":[],"categories_nodes":[],"categories_segments":[],"categories_sizes":[],"default_left":[0,0,0,0,0,0,0,0,0],"id":74,"left_children":[1,-1,3,5,7,-1,-1,-1,-1],"loss_changes":[1.2181504E1,0E0,1.5266633E1,1.0805437E1,1.28105755E1,0E0,0E0,0E0,0E0],"parents":[2147483647,0,0,2,2,3,3,4,4],"right_children":[2,-1,4,6,8,-1,-1,-1,-1],"split_conditions":[-6.3E1,6.1196417E-2,8.4210527E-1,6E0,7.73E1,-2.6444609E-3,2.8624056E-2,9.073268E-3,-7.340487E-2],"split_indices":[17,0,10,14,3,0,0,0,0],"split_type":[0,0,0,0,0,0,0,0,0],"sum_hessian":[4.4188455E2,6.1385345E0,4.35746E2,4.1721335E2,1.8532667E1,3.889851E2,2.8228222E1,6.6437054E0,1.1888962E1],"tree_param":{"num_deleted":"0","num_feature":"28","num_nodes":"9","size_leaf_vector":"1"}},{"base_weights":[-3.5533325E-3,-3.397102E-2,5.0681323E-2,-1.6313455E-1,1.21211395E-1,4.526315E-3,-2.1766473E-2,1.012482E-2,-4.1070882E-2],"categories":[],"categories_nodes":[],"categories_segments":[],"categories_sizes":[],"default_left":[0,0,0,0,0,0,0,0,0],"id":75,"left_children":[1,3,-1,5,7,-1,-1,-1,-1],"loss_changes":[1.3560048E1,8.623479E0,0E0,1.6310099E1,1.514204E1,0E0,0E0,0E0,0E0],"parents":[2147483647,0,0,1,1,3,3,4,4],"right_children":[2,4,-1,6,8,-1,-1,-1,-1],"split_conditions":[2.187E2,0E0,5.0681323E-2,-1E0,8E0,4.526315E-3,-2.1766473E-2,1.012482E-2,-4.1070882E-2],"split_indices":[26,12,0,12,17,0,0,0,0],"split_type":[0,0,0,0,0,0,0,0,0],"sum_hessian":[4.3826245E2,4.2704047E2,1.122198E1,2.33368E2,1.9367249E2,1.21124626E2,1.1224337E2,1.7947942E2,1.4193059E1],"tree_param":{"num_deleted":"0","num_feature":"28","num_nodes":"9","size_leaf_vector":"1"}},{"base_weights":[5.316429E-2,-1.0354435E-1,2.0872828E-1,-1.6209462E-1,5.191918E-2,2.6833293E-1,-8.980553E-1,-6.443204E-2,-6.0808645E-3,7.95642E-3,6.3158825E-2,-5.603496E-2,-2.2461893E-2],"categories":[],"categories_nodes":[],"categories_segments":[],"categories_sizes":[],"default_left":[0,0,0,0,0,0,0,0,0,0,0,0,0],"id":76,"left_children":[1,3,5,7,-1,9,11,-1,-1,-1,-1,-1,-1],"loss_changes":[1.0806136E1,1.4916052E1,1.4968857E1,9.256706E0,0E0,2.2616238E1,2.4930573E-1,0E0,0E0,0E0,0E0,0E0,0E0],"parents":[2147483647,0,0,1,1,2,2,3,3,5,5,6,6],"right_children":[2,4,6,8,-1,10,12,-1,-1,-1,-1,-1,-1],"split_conditions":[7.84E1,8.333333E-1,8.4210527E-1,1.4295E3,5.191918E-2,1.5919E3,5.217391E-1,-6.443204E-2,-6.0808645E-3,7.95642E-3,6.3158825E-2,-5.603496E-2,-2.2461893E-2],"split_indices":[5,8,10,25,0,25,8,0,0,0,0,0,0],"split_type":[0,0,0,0,0,0,0,0,0,0,0,0,0],"sum_hessian":[4.4000876E2,2.191276E2,2.2088116E2,2.097478E2,9.379788E0,2.1075772E2,1.0123446E1,5.5849676E0,2.0416284E2,1.9156949E2,1.918824E1,5.116835E0,5.006611E0],"tree_param":{"num_deleted":"0","num_feature":"28","num_nodes":"13","size_leaf_vector":"1"}},{"base_weights":[-8.000414E-2,-1.9629908E-1,3.3062708E-1,-1.3246827E-1,-8.5614836E-1,-4.260437E-2,4.6449366E-1,4.237761E-3,-1.2592605E-2,-7.138434E-2,-3.9007335E-3,-2.5667349E-2,3.0570885E-2],"categories":[],"categories_nodes":[],"categories_segments":[],"categories_sizes":[],"default_left":[0,0,0,0,0,0,0,0,0,0,0,0,0],"id":77,"left_children":[1,3,5,7,9,-1,11,-1,-1,-1,-1,-1,-1],"loss_changes":[2.1323595E1,1.4377293E1,1.6155043E1,8.320807E0,1.31394615E1,0E0,1.3347538E1,0E0,0E0,0E0,0E0,0E0,0E0],"parents":[2147483647,0,0,1,1,2,2,3,3,4,4,6,6],"right_children":[2,4,6,8,10,-1,12,-1,-1,-1,-1,-1,-1],"split_conditions":[5.8064514E-1,1.9E1,2E0,4.6666667E-1,1.5359E3,-4.260437E-2,-2.17E1,4.237761E-3,-1.2592605E-2,-7.138434E-2,-3.9007335E-3,-2.5667349E-2,3.0570885E-2],"split_indices":[11,9,20,8,24,0,6,0,0,0,0,0,0],"split_type":[0,0,0,0,0,0,0,0,0,0,0,0,0],"sum_hessian":[4.4326965E2,3.46238E2,9.7031654E1,3.1747922E2,2.8758802E1,8.971697E0,8.805995E1,1.1245693E2,2.0502228E2,1.5784472E1,1.2974329E1,1.0925389E1,7.713457E1],"tree_param":{"num_deleted":"0","num_feature":"28","num_nodes":"13","size_leaf_vector":"1"}},{"base_weights":[-6.316365E-2,-1.692465E-1,2.9961178E-1,-8.186466E-2,-7.125262E-1,-5.722789E-2,4.7739446E-1,-1.4826215E-2,4.7919396E-3,-4.653307E-2,2.1518363E-2,2.8792186E-2,-3.7215684E-2],"categories":[],"categories_nodes":[],"categories_segments":[],"categories_sizes":[],"default_left":[0,0,0,0,0,0,0,0,0,0,0,0,0],"id":78,"left_children":[1,3,5,7,9,-1,11,-1,-1,-1,-1,-1,-1],"loss_changes":[1.6635298E1,1.5706272E1,2.5852713E1,1.1120752E1,1.2112593E1,0E0,1.1230217E1,0E0,0E0,0E0,0E0,0E0,0E0],"parents":[2147483647,0,0,1,1,2,2,3,3,4,4,6,6],"right_children":[2,4,6,8,10,-1,12,-1,-1,-1,-1,-1,-1],"split_conditions":[5.8064514E-1,5.294118E-1,2E0,7.95E1,7E0,-5.722789E-2,1.6356E3,-1.4826215E-2,4.7919396E-3,-4.653307E-2,2.1518363E-2,2.8792186E-2,-3.7215684E-2],"split_indices":[11,11,20,2,21,0,25,0,0,0,0,0,0],"split_type":[0,0,0,0,0,0,0,0,0,0,0,0,0],"sum_hessian":[4.291248E2,3.3286438E2,9.626039E1,2.8838953E2,4.447486E1,9.595391E0,8.6665E1,1.3041386E2,1.5797566E2,3.7654152E1,6.820712E0,8.101166E1,5.653345E0],"tree_param":{"num_deleted":"0","num_feature":"28","num_nodes":"13","size_leaf_vector":"1"}},{"base_weights":[-1.1005746E-2,-3.456933E-2,4.5896128E-2,1.1094689E-1,-1.7821518E-1,5.6248595E-4,3.0780002E-2,4.2392504E-3,-1.597139E-2],"categories":[],"categories_nodes":[],"categories_segments":[],"categories_sizes":[],"default_left":[0,0,0,0,0,0,0,0,0],"id":79,"left_children":[1,3,-1,5,7,-1,-1,-1,-1],"loss_changes":[9.401338E0,8.86245E0,0E0,1.0509384E1,7.9898543E0,0E0,0E0,0E0,0E0],"parents":[2147483647,0,0,1,1,3,3,4,4],"right_children":[2,4,-1,6,8,-1,-1,-1,-1],"split_conditions":[9E0,0E0,4.5896128E-2,2E0,4.2857143E-1,5.6248595E-4,3.0780002E-2,4.2392504E-3,-1.597139E-2],"split_indices":[14,14,0,17,11,0,0,0,0],"split_type":[0,0,0,0,0,0,0,0,0],"sum_hessian":[4.29864E2,4.207431E2,9.120916E0,2.0883461E2,2.119085E2,1.7582997E2,3.3004642E1,7.39927E1,1.379158E2],"tree_param":{"num_deleted":"0","num_feature":"28","num_nodes":"9","size_leaf_vector":"1"}},{"base_weights":[1.7901746E-3,-6.873055E-1,3.7509747E-2,-1.2074211E0,3.286758E-2,-2.4569733E-3,8.055788E-1,-2.6836295E-2,-7.401948E-2,2.4224294E-3,-2.5746182E-2,1.0115943E-3,6.132379E-2],"categories":[],"categories_nodes":[],"categories_segments":[],"categories_sizes":[],"default_left":[0,0,0,0,0,0,0,0,0,0,0,0,0],"id":80,"left_children":[1,3,5,7,-1,9,11,-1,-1,-1,-1,-1,-1],"loss_changes":[1.0794086E1,1.635458E1,1.2960638E1,1.5650597E0,0E0,1.0522131E1,6.739087E0,0E0,0E0,0E0,0E0,0E0,0E0],"parents":[2147483647,0,0,1,1,2,2,3,3,5,5,6,6],"right_children":[2,4,6,8,-1,10,12,-1,-1,-1,-1,-1,-1],"split_conditions":[4E0,6.086956E-1,1.002E2,-8E0,3.286758E-2,4E0,7E0,-2.6836295E-2,-7.401948E-2,2.4224294E-3,-2.5746182E-2,1.0115943E-3,6.132379E-2],"split_indices":[15,8,3,17,0,13,15,0,0,0,0,0,0],"split_type":[0,0,0,0,0,0,0,0,0,0,0,0,0],"sum_hessian":[4.3809964E2,2.010354E1,4.179961E2,1.4660352E1,5.443189E0,3.9861884E2,1.9377254E1,5.633739E0,9.026612E0,3.6365814E2,3.49607E1,7.392801E0,1.1984453E1],"tree_param":{"num_deleted":"0","num_feature":"28","num_nodes":"13","size_leaf_vector":"1"}},{"base_weights":[-4.269779E-2,-8.309589E-2,5.091324E-2,-2.3214782E-2,-5.103136E-1,6.763102E-3,-8.460506E-3,-3.95764E-2,3.7684288E-2],"categories":[],"categories_nodes":[],"categories_segments":[],"categories_sizes":[],"default_left":[0,0,0,0,0,0,0,0,0],"id":81,"left_children":[1,3,-1,5,7,-1,-1,-1,-1],"loss_changes":[1.7730259E1,1.0141918E1,0E0,8.1801E0,1.8245338E1,0E0,0E0,0E0,0E0],"parents":[2147483647,0,0,1,1,3,3,4,4],"right_children":[2,4,-1,6,8,-1,-1,-1,-1],"split_conditions":[1.002E2,1.8E1,5.091324E-2,0E0,5.873016E-1,6.763102E-3,-8.460506E-3,-3.95764E-2,3.7684288E-2],"split_indices":[5,9,0,14,11,0,0,0,0],"split_type":[0,0,0,0,0,0,0,0,0],"sum_hessian":[4.1139066E2,3.977234E2,1.3667277E1,3.5042194E2,4.7301434E1,1.6775284E2,1.826691E2,3.9216377E1,8.085056E0],"tree_param":{"num_deleted":"0","num_feature":"28","num_nodes":"9","size_leaf_vector":"1"}},{"base_weights":[7.1724266E-2,1.0715623E-1,-8.7171894E-1,1.3424948E-2,5.0082153E-1,-5.745851E-2,-1.1476055E-2,5.135545E-3,-1.3223643E-2,3.1725243E-2,-4.9465206E-2],"categories":[],"categories_nodes":[],"categories_segments":[],"categories_sizes":[],"default_left":[0,0,0,0,0,0,0,0,0,0,0],"id":82,"left_children":[1,3,5,7,9,-1,-1,-1,-1,-1,-1],"loss_changes":[1.4492801E1,1.53423E1,2.261444E0,8.434126E0,1.6849579E1,0E0,0E0,0E0,0E0,0E0,0E0],"parents":[2147483647,0,0,1,1,2,2,3,3,4,4],"right_children":[2,4,6,8,10,-1,-1,-1,-1,-1,-1],"split_conditions":[1.068E2,8.89E1,8E0,8.3E1,2E0,-5.745851E-2,-1.1476055E-2,5.135545E-3,-1.3223643E-2,3.1725243E-2,-4.9465206E-2],"split_indices":[4,4,15,4,17,0,0,0,0,0,0],"split_type":[0,0,0,0,0,0,0,0,0,0,0],"sum_hessian":[4.3014774E2,4.1596152E2,1.4186233E1,3.3742593E2,7.8535576E1,8.970715E0,5.215518E0,2.5636404E2,8.1061905E1,7.292194E1,5.6136312E0],"tree_param":{"num_deleted":"0","num_feature":"28","num_nodes":"11","size_leaf_vector":"1"}},{"base_weights":[2.8461512E-2,-5.637953E-1,1.1250309E-1,-2.9065415E-1,-7.6181926E-2,-1.6725661E-1,2.940854E-1,4.7742497E-2,-2.4742154E-2,4.1184273E-2,-1.6636454E-2,-1.1289196E-2,2.1343507E-2],"categories":[],"categories_nodes":[],"categories_segments":[],"categories_sizes":[],"default_left":[0,0,0,0,0,0,0,0,0,0,0,0,0],"id":83,"left_children":[1,3,5,7,-1,9,11,-1,-1,-1,-1,-1,-1],"loss_changes":[2.144672E1,1.3186037E1,1.9281254E1,1.1750839E1,0E0,2.4869728E1,1.6034359E1,0E0,0E0,0E0,0E0,0E0,0E0],"parents":[2147483647,0,0,1,1,2,2,3,3,5,5,6,6],"right_children":[2,4,6,8,-1,10,12,-1,-1,-1,-1,-1,-1],"split_conditions":[-1.81E1,6.363636E-1,9E0,6.31E1,-7.6181926E-2,4E-1,3.81E-1,4.7742497E-2,-2.4742154E-2,4.1184273E-2,-1.6636454E-2,-1.1289196E-2,2.1343507E-2],"split_indices":[6,10,18,5,0,0,27,0,0,0,0,0,0],"split_type":[0,0,0,0,0,0,0,0,0,0,0,0,0],"sum_hessian":[4.283755E2,5.2021E1,3.763545E2,4.2099274E1,9.921725E0,1.479614E2,2.2839308E2,5.083984E0,3.701529E1,2.0231686E1,1.27729706E2,4.6100403E1,1.8229268E2],"tree_param":{"num_deleted":"0","num_feature":"28","num_nodes":"13","size_leaf_vector":"1"}},{"base_weights":[7.442763E-2,-5.015227E-2,1.0365903E-1,3.3363017E-1,-7.1640946E-3,-9.214557E-3,3.0744243E-2,1.2693778E-2,-7.820576E-3],"categories":[],"categories_nodes":[],"categories_segments":[],"categories_sizes":[],"default_left":[0,0,0,0,0,0,0,0,0],"id":84,"left_children":[1,-1,3,5,7,-1,-1,-1,-1],"loss_changes":[1.3225382E1,0E0,1.0440281E1,1.959787E1,1.0827903E1,0E0,0E0,0E0,0E0],"parents":[2147483647,0,0,2,2,3,3,4,4],"right_children":[2,-1,4,6,8,-1,-1,-1,-1],"split_conditions":[2.3809524E-1,-5.015227E-2,4.1666666E-1,-1.033E2,-1E0,-9.214557E-3,3.0744243E-2,1.2693778E-2,-7.820576E-3],"split_indices":[10,0,8,26,14,0,0,0,0],"split_type":[0,0,0,0,0,0,0,0,0],"sum_hessian":[4.1630988E2,9.585757E0,4.0672412E2,1.3157565E2,2.7514847E2,4.6362396E1,8.521326E1,9.946271E1,1.7568578E2],"tree_param":{"num_deleted":"0","num_feature":"28","num_nodes":"9","size_leaf_vector":"1"}},{"base_weights":[-2.9719245E-2,1.251411E-1,-2.5417504E-1,-1.787863E-1,3.1944934E-1,-5.7757646E-1,1.9954255E-2,1.3664073E-2,-2.7917316E-2,2.4489991E-2,-2.915885E-3,-2.1038787E-2,-7.340377E-2,-1.926398E-2,2.20894E-2],"categories":[],"categories_nodes":[],"categories_segments":[],"categories_sizes":[],"default_left":[0,0,0,0,0,0,0,0,0,0,0,0,0,0,0],"id":85,"left_children":[1,3,5,7,9,11,13,-1,-1,-1,-1,-1,-1,-1,-1],"loss_changes":[1.5149766E1,1.5313479E1,1.5852243E1,1.7627106E1,1.0246494E1,1.0316435E1,1.6947271E1,0E0,0E0,0E0,0E0,0E0,0E0,0E0,0E0],"parents":[2147483647,0,0,1,1,2,2,3,3,4,4,5,5,6,6],"right_children":[2,4,6,8,10,12,14,-1,-1,-1,-1,-1,-1,-1,-1],"split_conditions":[8.3E1,9E0,8.83E1,5.39823E-1,1.6007E3,1.5807E3,8.28E1,1.3664073E-2,-2.7917316E-2,2.4489991E-2,-2.915885E-3,-2.1038787E-2,-7.340377E-2,-1.926398E-2,2.20894E-2],"split_indices":[4,18,4,10,24,24,3,0,0,0,0,0,0,0,0],"split_type":[0,0,0,0,0,0,0,0,0,0,0,0,0,0,0],"sum_hessian":[4.3260394E2,2.561173E2,1.7648662E2,9.97299E1,1.5638744E2,8.0372406E1,9.611421E1,4.5588783E1,5.414111E1,1.07659325E2,4.8728104E1,7.031268E1,1.0059718E1,4.8967033E1,4.714718E1],"tree_param":{"num_deleted":"0","num_feature":"28","num_nodes":"15","size_leaf_vector":"1"}},{"base_weights":[6.5273945E-3,2.959101E-1,-1.0162687E-1,4.303836E-2,7.50771E-1,-2.544902E-1,2.7690744E-1,1.1979102E-2,-9.6781455E-2,1.8340928E-2,5.7761937E-2,-8.4119355E-3,-6.693293E-2,2.066059E-2,-2.5721708E-2],"categories":[],"categories_nodes":[],"categories_segments":[],"categories_sizes":[],"default_left":[0,0,0,0,0,0,0,0,0,0,0,0,0,0,0],"id":86,"left_children":[1,3,5,7,9,11,13,-1,-1,-1,-1,-1,-1,-1,-1],"loss_changes":[1.323004E1,1.3108534E1,1.7871925E1,2.9962616E1,5.5613594E0,2.0056747E1,9.893856E0,0E0,0E0,0E0,0E0,0E0,0E0,0E0,0E0],"parents":[2147483647,0,0,1,1,2,2,3,3,4,4,5,5,6,6],"right_children":[2,4,6,8,10,12,14,-1,-1,-1,-1,-1,-1,-1,-1],"split_conditions":[-1E0,7.95E1,7.11E1,7.52E1,8E0,5.97E1,9E-1,1.1979102E-2,-9.6781455E-2,1.8340928E-2,5.7761937E-2,-8.4119355E-3,-6.693293E-2,2.066059E-2,-2.5721708E-2],"split_indices":[12,2,26,26,16,26,0,0,0,0,0,0,0,0,0],"split_type":[0,0,0,0,0,0,0,0,0,0,0,0,0,0,0],"sum_hessian":[4.191503E2,1.13577515E2,3.0557278E2,7.4193016E1,3.93845E1,2.182092E2,8.7363594E1,6.873444E1,5.458569E0,2.1798897E1,1.7585604E1,2.0381926E2,1.4389929E1,7.524599E1,1.2117602E1],"tree_param":{"num_deleted":"0","num_feature":"28","num_nodes":"15","size_leaf_vector":"1"}},{"base_weights":[-2.1209804E-2,-3.655461E-1,1.1566805E-1,-6.1267304E-1,5.83277E-1,7.732084E-2,9.919703E-1,3.8193145E-3,-3.9664425E-2,4.395989E-2,-1.2811291E-2,8.076634E-3,-2.4825715E-2,6.516611E-2,2.3624487E-2],"categories":[],"categories_nodes":[],"categories_segments":[],"categories_sizes":[],"default_left":[0,0,0,0,0,0,0,0,0,0,0,0,0,0,0],"id":87,"left_children":[1,3,5,7,9,11,13,-1,-1,-1,-1,-1,-1,-1,-1],"loss_changes":[2.0042536E1,2.890913E1,9.989352E0,1.2210522E1,6.7813272E0,1.423941E1,9.2112064E-1,0E0,0E0,0E0,0E0,0E0,0E0,0E0,0E0],"parents":[2147483647,0,0,1,1,2,2,3,3,4,4,5,5,6,6],"right_children":[2,4,6,8,10,12,14,-1,-1,-1,-1,-1,-1,-1,-1],"split_conditions":[1E0,1.5857E3,2.6E1,2.857143E-1,1.1E1,6.813187E-1,8.0487806E-1,3.8193145E-3,-3.9664425E-2,4.395989E-2,-1.2811291E-2,8.076634E-3,-2.4825715E-2,6.516611E-2,2.3624487E-2],"split_indices":[22,24,18,8,15,10,10,0,0,0,0,0,0,0,0],"split_type":[0,0,0,0,0,0,0,0,0,0,0,0,0,0,0],"sum_hessian":[4.2186667E2,1.1949192E2,3.0237476E2,9.5305756E1,2.4186167E1,2.9137076E2,1.1003992E1,1.9858038E1,7.5447716E1,1.7918257E1,6.2679095E0,